{"learner":{"attributes":{"scikit_learn":"{\"_estimator_type\": \"regressor\"}"},"feature_names":["totalOwners","kilometers","seats","power","batteryCapacity","age","isSuv","metallicColor","airconditioning","parking_sensors","satellite_navigator","cruise_control_adaptive","parking_camera_simple_camera","seat_heaters","driving_assistant","alloy_wheels","electric_mirrors","lane_departure_warning_system","electrically_operated_tailgate","leather_upholstery","emergency_brake_assist","collision_avoidance_system","cruise_control_traditional","parking_assistant","tow_bar","electric_seats_with_memory","heated_steering_wheel","sunroof","sun_hatch_with_panorama","adaptive_headlights","sport_seats","fuel_battery_powered_heater","parking_camera_360-degree_camera","battery_preheating","electric_seats_without_memory","air_suspension","curve_lights","head_up_display","sport_base","make_audi","make_bmw","make_byd","make_citroen","make_cupra","make_dacia","make_ds","make_fiat","make_ford","make_hyundai","make_jaguar","make_kia","make_lexus","make_maxus","make_mazda","make_mercedes-benz","make_mg","make_mini","make_muu merkki","make_nissan","make_opel","make_peugeot","make_polestar","make_porsche","make_renault","make_seat","make_skoda","make_subaru","make_tesla","make_toyota","make_volkswagen","make_volvo","model_2","model_208","model_3","model_500e","model_ariya","model_atto3","model_born","model_bz4x","model_c4","model_c40","model_citigo","model_combo-e","model_cooper","model_corsa-e","model_e-2008","model_e-208","model_e-308","model_e-berlingo","model_e-c4","model_e-c4 x","model_e-niro","model_e-soul","model_e-spacetourer","model_e-traveller","model_e-tron","model_e-tron gt","model_e-tron gt rs","model_e-up!","model_enyaq","model_eqa","model_eqb","model_eqc","model_eqe","model_eqs","model_eqs suv","model_eqv","model_euniq","model_ev6","model_ev9","model_han","model_i-pace","model_i3","model_i3s","model_i4","model_i4 m50","model_i7","model_id. buzz","model_id3","model_id4","model_id5","model_ioniq 5","model_ioniq 6","model_ioniq electric","model_ix","model_ix m60","model_ix1","model_ix3","model_kona","model_kona electric","model_leaf","model_marvel r","model_megane","model_mg4","model_mg5","model_mifa 9","model_mii electric","model_model 3","model_model s","model_model x","model_model y","model_mokka","model_mokka-e","model_mustang","model_mustang mach-e","model_muu malli","model_mx-30","model_niro","model_proace city verso ev","model_proace verso ev","model_q4 e-tron","model_q8 e-tron","model_solterra","model_spring","model_t90","model_tang","model_taycan","model_twingo","model_up!","model_ux","model_xc40","model_zafira-e","model_zoe","model_zs","color_beige","color_black","color_blue","color_brown","color_copper","color_gray","color_green","color_orange","color_other","color_red","color_silver","color_turquoise","color_violet","color_white","color_yellow","driveType_4wd","driveType_fwd","driveType_rwd"],"feature_types":["int","float","int","float","float","float","i","i","i","i","i","i","i","i","i","i","i","i","i","i","i","i","i","i","i","i","i","i","i","i","i","i","i","i","i","i","i","i","i","i","i","i","i","i","i","i","i","i","i","i","i","i","i","i","i","i","i","i","i","i","i","i","i","i","i","i","i","i","i","i","i","i","i","i","i","i","i","i","i","i","i","i","i","i","i","i","i","i","i","i","i","i","i","i","i","i","i","i","i","i","i","i","i","i","i","i","i","i","i","i","i","i","i","i","i","i","i","i","i","i","i","i","i","i","i","i","i","i","i","i","i","i","i","i","i","i","i","i","i","i","i","i","i","i","i","i","i","i","i","i","i","i","i","i","i","i","i","i","i","i","i","i","i","i","i","i","i","i","i","i","i","i","i","i","i","i","i","i","i","i","i","i"],"gradient_booster":{"model":{"gbtree_model_param":{"num_parallel_tree":"5","num_trees":"500"},"iteration_indptr":[0,5,10,15,20,25,30,35,40,45,50,55,60,65,70,75,80,85,90,95,100,105,110,115,120,125,130,135,140,145,150,155,160,165,170,175,180,185,190,195,200,205,210,215,220,225,230,235,240,245,250,255,260,265,270,275,280,285,290,295,300,305,310,315,320,325,330,335,340,345,350,355,360,365,370,375,380,385,390,395,400,405,410,415,420,425,430,435,440,445,450,455,460,465,470,475,480,485,490,495,500],"tree_info":[0,0,0,0,0,0,0,0,0,0,0,0,0,0,0,0,0,0,0,0,0,0,0,0,0,0,0,0,0,0,0,0,0,0,0,0,0,0,0,0,0,0,0,0,0,0,0,0,0,0,0,0,0,0,0,0,0,0,0,0,0,0,0,0,0,0,0,0,0,0,0,0,0,0,0,0,0,0,0,0,0,0,0,0,0,0,0,0,0,0,0,0,0,0,0,0,0,0,0,0,0,0,0,0,0,0,0,0,0,0,0,0,0,0,0,0,0,0,0,0,0,0,0,0,0,0,0,0,0,0,0,0,0,0,0,0,0,0,0,0,0,0,0,0,0,0,0,0,0,0,0,0,0,0,0,0,0,0,0,0,0,0,0,0,0,0,0,0,0,0,0,0,0,0,0,0,0,0,0,0,0,0,0,0,0,0,0,0,0,0,0,0,0,0,0,0,0,0,0,0,0,0,0,0,0,0,0,0,0,0,0,0,0,0,0,0,0,0,0,0,0,0,0,0,0,0,0,0,0,0,0,0,0,0,0,0,0,0,0,0,0,0,0,0,0,0,0,0,0,0,0,0,0,0,0,0,0,0,0,0,0,0,0,0,0,0,0,0,0,0,0,0,0,0,0,0,0,0,0,0,0,0,0,0,0,0,0,0,0,0,0,0,0,0,0,0,0,0,0,0,0,0,0,0,0,0,0,0,0,0,0,0,0,0,0,0,0,0,0,0,0,0,0,0,0,0,0,0,0,0,0,0,0,0,0,0,0,0,0,0,0,0,0,0,0,0,0,0,0,0,0,0,0,0,0,0,0,0,0,0,0,0,0,0,0,0,0,0,0,0,0,0,0,0,0,0,0,0,0,0,0,0,0,0,0,0,0,0,0,0,0,0,0,0,0,0,0,0,0,0,0,0,0,0,0,0,0,0,0,0,0,0,0,0,0,0,0,0,0,0,0,0,0,0,0,0,0,0,0,0,0,0,0,0,0,0,0,0,0,0,0,0,0,0,0,0,0,0,0,0,0,0,0,0,0,0,0,0,0,0,0,0,0,0,0,0,0,0,0,0,0,0,0,0,0,0,0,0,0,0,0,0,0,0,0,0,0,0,0,0,0,0,0,0,0,0,0,0,0,0],"trees":[{"base_weights":[-5.88697E-5,-7.2319053E3,4.8288215E4,-2.155634E4,-7.415785E2,3.3374746E4,8.883164E4,-2.6430191E4,-1.5863015E4,-2.1229224E3,6.9167E4,2.1386441E4,4.4248367E4,1.0328666E5,7.106413E4,-2.229019E4,-2.9735957E4,-1.3121252E4,-2.3369605E4,-3.970274E3,1.30013545E4,5.5580117E3,2.3550288E3,2.7464137E4,7.444892E3,5.203201E4,9.044297E3,6.5323833E3,3.6092505E3,7.2351266E4,1.24003365E2,-1.8879217E4,-2.7384402E4,-2.0221866E3,-2.7443666E4,-1.437917E4,-2.6602954E3,-2.395045E4,-9.697129E3,3.1482928E2,-8.169337E3,6.005683E3,1.7195537E4,1.7504695E4,3.9690434E4,9.504639E3,-3.5269854E3,3.4567754E4,5.761709E4,6.126736E3,1.3444054E3,4.4339985E3,1.3453379E3,-1.2469648E3,-8.37214E2,-2.7582152E4,-3.4099664E2,-2.8002387E4,-8.714163E2,-1.3749258E4,-1.3633585E3,-5.133719E3,7.260096E3,-2.5051707E4,-9.190509E2,-6.3127466E2,-1.6729665E2,-4.8930896E2,1.9671765E3,-1.1639027E4,-5.404233E3,1.1169287E4,-1.7660374E3,1.1523582E4,2.0383766E4,1.8737598E4,-1.134437E4,4.510381E4,-3.0137957E3,5.591056E3,1.124639E4,9.587562E2,-4.95145E2,2.391323E4,2.503238E3,4.8109902E4,3.9149321E3,1.1329334E4,8.581278E2,-1.1565029E3,-1.7088413E3,-2.8087172E4,-4.3819666E2,-1.209143E4,-1.6382291E4,-3.1546225E2,-6.2144385E3,3.100336E1,4.9787228E2,-2.6148717E4,-1.1599714E3,-6.740771E3,2.6431292E3,-1.2199556E4,5.9568604E2,-4.0108386E3,-1.2593442E4,6.9224475E2,2.5965506E2,8.4852716E2,-5.1882295E3,1.50999E4,4.113831E3,2.3504768E4,1.6500023E4,1.6599824E4,1.769356E3,3.100336E1,-1.0519967E3,4.6265406E4,9.213378E2,-5.4332437E3,2.7250336E2,5.9416416E3,3.100336E1,1.1615308E4,6.070336E1,1.5630208E1,9.493781E1,1.791781E3,9.580505E2,3.280034E2,4.8918086E4,7.212395E2,9.1003365E1,-4.6554624E3,4.438507E3,-1.6898624E3,-4.7899667E2,-7.595139E2,-3.549871E2,-1.0168992E3,-4.2042282E2,-1.7899664E2,4.8885376E1,-4.026884E2,-1.3799496E2,-9.149278E2,-1.6046056E3,-6.868901E2,-2.9225819E1,3.116356E2,-1.6953388E1,-7.6848975E2,1.6887296E2,-2.9111517E2,3.0521417E2,-7.801332E2,-1.1909496E2,-4.842774E1,8.9849106E1,1.0033594E0,-3.353938E2,7.390664E2,1.0931139E3,2.038188E2,4.675034E2,1.5450734E3,1.0303491E3,8.331922E2,1.2733895E3,4.1766632E2,1.2388477E3,2.8953242E3,1.4088214E3,-6.1996643E1,-3.7649496E2,3.8103952E2,3.100336E1,1.7800337E2,7.111231E2,3.7033596E0,-2.2966406E0,3.1008342E3,2.0283062E3,1.0033594E0,-3.3559464E2,4.8925433E2,-3.426622E2],"categories":[],"categories_nodes":[],"categories_segments":[],"categories_sizes":[],"default_left":[0,0,0,0,0,0,0,0,0,0,0,0,0,0,0,0,0,0,0,0,0,0,0,0,0,0,0,0,0,0,0,0,0,0,0,0,0,0,0,0,0,0,0,0,0,0,0,0,0,0,0,0,0,0,0,0,0,0,0,0,0,0,0,0,0,0,0,0,0,0,0,0,0,0,0,0,0,0,0,0,0,0,0,0,0,0,0,0,0,0,0,0,0,0,0,0,0,0,0,0,0,0,0,0,0,0,0,0,0,0,0,0,0,0,0,0,0,0,0,0,0,0,0,0,0,0,0,0,0,0,0,0,0,0,0,0,0,0,0,0,0,0,0,0,0,0,0,0,0,0,0,0,0,0,0,0,0,0,0,0,0,0,0,0,0,0,0,0,0,0,0,0,0,0,0,0,0,0,0,0,0,0,0,0,0,0,0,0,0],"id":0,"left_children":[1,3,5,7,9,11,13,15,17,19,21,23,25,27,29,31,33,35,37,39,41,-1,-1,43,45,47,49,-1,-1,51,-1,53,55,-1,57,59,61,63,65,67,69,71,73,75,77,79,81,83,85,87,-1,-1,-1,-1,-1,89,-1,91,-1,93,-1,95,97,99,-1,-1,-1,101,-1,103,105,107,109,111,113,115,117,119,121,123,125,127,-1,129,-1,131,-1,133,135,-1,-1,137,-1,139,141,143,145,-1,-1,147,-1,149,151,153,-1,155,157,-1,-1,159,161,163,165,167,169,171,-1,-1,-1,173,-1,175,-1,177,-1,179,-1,181,-1,-1,-1,-1,183,-1,-1,185,187,-1,-1,-1,-1,-1,-1,-1,-1,-1,-1,-1,-1,-1,-1,-1,-1,-1,-1,-1,-1,-1,-1,-1,-1,-1,-1,-1,-1,-1,-1,-1,-1,-1,-1,-1,-1,-1,-1,-1,-1,-1,-1,-1,-1,-1,-1,-1,-1,-1,-1,-1,-1],"loss_changes":[1.1126015E12,2.576046E11,2.479622E11,2.3555375E10,1.8439818E11,3.8812385E10,2.1168062E10,5.6874107E9,7.946461E9,5.235503E10,2.2339453E10,1.225121E10,4.309795E10,7.6671877E9,4.5573243E9,3.1320064E9,1.3939999E9,3.856814E9,6.095585E8,3.0033588E10,5.882315E9,0E0,0E0,1.1725472E10,1.07309005E9,1.0688397E10,1.0322936E9,0E0,0E0,2.3639327E9,0E0,9.195274E8,1.9513344E8,0E0,7.988347E8,1.0750771E9,8.470033E8,5.764833E8,4.825984E6,2.1610279E10,8.0248873E9,3.1498724E9,2.0617093E9,2.2755164E9,1.0538762E10,2.0296371E8,1.7748853E8,1.5934792E9,3.8989005E9,7.0294976E8,0E0,0E0,0E0,0E0,0E0,5.5640064E7,0E0,7.390822E7,0E0,8.844616E8,0E0,1.3863354E8,4.469901E7,4.6546944E7,0E0,0E0,0E0,1.5840329E10,0E0,4.630311E9,4.667687E9,6.844518E7,2.9072368E8,1.2098637E9,5.818634E8,7.976223E8,2.2928144E8,6.7178496E8,1.3435739E8,2.183568E7,8.641818E7,2.9156555E6,0E0,2.7956736E8,0E0,1.35236E9,0E0,6.995597E7,2.970337E8,0E0,0E0,2.0381696E7,0E0,4.7142707E8,3.7475942E8,2.0521928E7,2.7368512E7,0E0,0E0,5.244109E7,0E0,7.942827E9,4.0239337E9,3.3621606E9,0E0,3.0548485E9,3.0376653E8,0E0,0E0,2.1623228E7,2.9362688E7,5.3236736E7,1.8352192E7,1.552466E8,1.8669363E8,1.7679585E9,0E0,0E0,0E0,5.899469E8,0E0,1.2032928E7,0E0,2.5563904E7,0E0,1.60256E7,0E0,9.816772E3,0E0,0E0,0E0,0E0,1.7340826E8,0E0,0E0,2.6382464E7,3.85986E8,0E0,0E0,0E0,0E0,0E0,0E0,0E0,0E0,0E0,0E0,0E0,0E0,0E0,0E0,0E0,0E0,0E0,0E0,0E0,0E0,0E0,0E0,0E0,0E0,0E0,0E0,0E0,0E0,0E0,0E0,0E0,0E0,0E0,0E0,0E0,0E0,0E0,0E0,0E0,0E0,0E0,0E0,0E0,0E0,0E0,0E0,0E0,0E0,0E0,0E0,0E0,0E0],"parents":[2147483647,0,0,1,1,2,2,3,3,4,4,5,5,6,6,7,7,8,8,9,9,10,10,11,11,12,12,13,13,14,14,15,15,16,16,17,17,18,18,19,19,20,20,23,23,24,24,25,25,26,26,29,29,31,31,32,32,34,34,35,35,36,36,37,37,38,38,39,39,40,40,41,41,42,42,43,43,44,44,45,45,46,46,47,47,48,48,49,49,55,55,57,57,59,59,61,61,62,62,63,63,67,67,69,69,70,70,71,71,72,72,73,73,74,74,75,75,76,76,77,77,78,78,79,79,80,80,81,81,83,83,85,85,87,87,88,88,91,91,93,93,94,94,95,95,96,96,99,99,101,101,102,102,103,103,105,105,106,106,109,109,110,110,111,111,112,112,113,113,114,114,115,115,119,119,121,121,123,123,125,125,127,127,132,132,135,135,136,136],"right_children":[2,4,6,8,10,12,14,16,18,20,22,24,26,28,30,32,34,36,38,40,42,-1,-1,44,46,48,50,-1,-1,52,-1,54,56,-1,58,60,62,64,66,68,70,72,74,76,78,80,82,84,86,88,-1,-1,-1,-1,-1,90,-1,92,-1,94,-1,96,98,100,-1,-1,-1,102,-1,104,106,108,110,112,114,116,118,120,122,124,126,128,-1,130,-1,132,-1,134,136,-1,-1,138,-1,140,142,144,146,-1,-1,148,-1,150,152,154,-1,156,158,-1,-1,160,162,164,166,168,170,172,-1,-1,-1,174,-1,176,-1,178,-1,180,-1,182,-1,-1,-1,-1,184,-1,-1,186,188,-1,-1,-1,-1,-1,-1,-1,-1,-1,-1,-1,-1,-1,-1,-1,-1,-1,-1,-1,-1,-1,-1,-1,-1,-1,-1,-1,-1,-1,-1,-1,-1,-1,-1,-1,-1,-1,-1,-1,-1,-1,-1,-1,-1,-1,-1,-1,-1,-1,-1,-1,-1],"split_conditions":[8.9E1,6.6E1,3.73E2,5.45E1,1E0,1E0,8.333333E-1,6.666667E-1,1.5833334E0,1E0,8.3333336E-2,1E0,1E0,1.11E2,2E0,1.09E2,4.2E1,1E0,1E0,9.166667E-1,2.31E2,5.5580117E3,2.3550288E3,1E0,1.9E4,1E0,3.15E2,6.5323833E3,3.6092505E3,2.75E0,1.24003365E2,1E0,5.2E1,-2.0221866E3,6E0,1E0,1E0,1E0,1.21E4,1E0,1E0,4.1666666E-1,1E0,2.0833333E0,1.8333334E0,1E0,4.3E4,2.2E2,1E0,1.8333334E0,1.3444054E3,4.4339985E3,1.3453379E3,-1.2469648E3,-8.37214E2,3.3E1,-3.4099664E2,3E0,-8.714163E2,8.333333E-1,-1.3633585E3,8.3333336E-2,4.92E3,1.65E2,-9.190509E2,-6.3127466E2,-1.6729665E2,7.28E1,1.9671765E3,1E0,1E0,1E0,1.9166666E0,8.3333336E-2,6.666667E-1,1E0,6.5E3,1E0,3.8E4,1.0833334E0,1.1666666E0,2.4E4,-4.95145E2,1E0,2.503238E3,2.45E2,3.9149321E3,3.6E4,1E0,-1.1565029E3,-1.7088413E3,1E0,-4.3819666E2,1E0,1E0,1E0,1E0,3.100336E1,4.9787228E2,1.15E4,-1.1599714E3,1.65E2,1E0,8.3E1,5.9568604E2,1E0,5E2,6.9224475E2,2.5965506E2,7.9E3,1E0,1E0,1.6666666E0,1E0,1E0,1.85E2,1.769356E3,3.100336E1,-1.0519967E3,1E0,9.213378E2,1.764E4,2.7250336E2,1E0,3.100336E1,1E0,6.070336E1,1.9852E4,9.493781E1,1.791781E3,9.580505E2,3.280034E2,1.9E4,7.212395E2,9.1003365E1,1E0,1E0,-1.6898624E3,-4.7899667E2,-7.595139E2,-3.549871E2,-1.0168992E3,-4.2042282E2,-1.7899664E2,4.8885376E1,-4.026884E2,-1.3799496E2,-9.149278E2,-1.6046056E3,-6.868901E2,-2.9225819E1,3.116356E2,-1.6953388E1,-7.6848975E2,1.6887296E2,-2.9111517E2,3.0521417E2,-7.801332E2,-1.1909496E2,-4.842774E1,8.9849106E1,1.0033594E0,-3.353938E2,7.390664E2,1.0931139E3,2.038188E2,4.675034E2,1.5450734E3,1.0303491E3,8.331922E2,1.2733895E3,4.1766632E2,1.2388477E3,2.8953242E3,1.4088214E3,-6.1996643E1,-3.7649496E2,3.8103952E2,3.100336E1,1.7800337E2,7.111231E2,3.7033596E0,-2.2966406E0,3.1008342E3,2.0283062E3,1.0033594E0,-3.3559464E2,4.8925433E2,-3.426622E2],"split_indices":[4,4,3,4,62,35,5,5,5,40,5,47,95,4,0,3,4,179,39,5,3,0,0,179,1,179,3,0,0,5,0,42,4,0,2,55,28,65,1,151,179,5,179,5,5,179,1,3,54,5,0,0,0,0,0,4,0,5,0,5,0,5,1,3,0,0,0,4,0,117,137,38,5,5,5,180,1,40,1,5,5,1,0,15,0,3,0,1,19,0,0,39,0,65,75,10,22,0,0,1,0,3,181,4,0,102,3,0,0,1,11,25,5,12,28,3,0,0,0,50,0,1,0,171,0,6,0,1,0,0,0,0,1,0,0,8,12,0,0,0,0,0,0,0,0,0,0,0,0,0,0,0,0,0,0,0,0,0,0,0,0,0,0,0,0,0,0,0,0,0,0,0,0,0,0,0,0,0,0,0,0,0,0,0,0,0,0,0,0],"split_type":[0,0,0,0,0,0,0,0,0,0,0,0,0,0,0,0,0,0,0,0,0,0,0,0,0,0,0,0,0,0,0,0,0,0,0,0,0,0,0,0,0,0,0,0,0,0,0,0,0,0,0,0,0,0,0,0,0,0,0,0,0,0,0,0,0,0,0,0,0,0,0,0,0,0,0,0,0,0,0,0,0,0,0,0,0,0,0,0,0,0,0,0,0,0,0,0,0,0,0,0,0,0,0,0,0,0,0,0,0,0,0,0,0,0,0,0,0,0,0,0,0,0,0,0,0,0,0,0,0,0,0,0,0,0,0,0,0,0,0,0,0,0,0,0,0,0,0,0,0,0,0,0,0,0,0,0,0,0,0,0,0,0,0,0,0,0,0,0,0,0,0,0,0,0,0,0,0,0,0,0,0,0,0,0,0,0,0,0,0],"sum_hessian":[3.184E3,2.77E3,4.14E2,8.63E2,1.907E3,3.04E2,1.1E2,4.63E2,4E2,1.871E3,3.6E1,1.46E2,1.58E2,5.8E1,5.2E1,2.09E2,2.54E2,2.95E2,1.05E2,1.668E3,2.03E2,1.9E1,1.7E1,1.01E2,4.5E1,1.29E2,2.9E1,5E1,8E0,5.1E1,1E0,1.28E2,8.1E1,8.8E1,1.66E2,2.63E2,3.2E1,1E2,5E0,8.26E2,8.42E2,7.7E1,1.26E2,5.7E1,4.4E1,3.8E1,7E0,3.3E1,9.6E1,2.5E1,4E0,4.9E1,2E0,9E1,3.8E1,8E1,1E0,1.58E2,8E0,2.47E2,1.6E1,2.6E1,6E0,8.7E1,1.3E1,4E0,1E0,8.07E2,1.9E1,3.72E2,4.7E2,4.6E1,3.1E1,4.7E1,7.9E1,5.5E1,2E0,3.9E1,5E0,1.3E1,2.5E1,4E0,3E0,1.5E1,1.8E1,4.6E1,5E1,1.2E1,1.3E1,1E1,7E1,1.57E2,1E0,1.55E2,9.2E1,5E0,2.1E1,1E0,5E0,7E1,1.7E1,2.69E2,5.38E2,3.63E2,9E0,3.95E2,7.5E1,4.3E1,3E0,1.8E1,1.3E1,3.1E1,1.6E1,4.1E1,3.8E1,4.8E1,7E0,1E0,1E0,3.7E1,2E0,4E0,1E0,1.2E1,1E0,2.4E1,1E0,2E0,2E0,7E0,8E0,1E0,4.5E1,1.1E1,1E0,5E0,8E0,1.56E2,1E0,1.41E2,1.4E1,8.6E1,6E0,1E0,4E0,1.8E1,3E0,5E0,6.5E1,1.53E2,1.16E2,2.87E2,2.51E2,3.49E2,1.4E1,3.62E2,3.3E1,7.2E1,3E0,5E0,1.3E1,1E0,1.2E1,1.9E1,1.2E1,1.5E1,1E0,2.8E1,1.3E1,2.7E1,1.1E1,1.5E1,3.3E1,3.3E1,4E0,1E0,3E0,1.1E1,1E0,1E0,2.3E1,1E0,1E0,3.6E1,9E0,1E0,4E0,6E0,2E0],"tree_param":{"num_deleted":"0","num_feature":"182","num_nodes":"189","size_leaf_vector":"1"}},{"base_weights":[-5.88697E-5,-7.2319053E3,4.8288215E4,-2.155634E4,-7.415785E2,3.3374746E4,8.883164E4,-2.6430191E4,-1.5863015E4,-2.1229224E3,6.9167E4,2.1386441E4,4.4248367E4,1.0328666E5,7.106413E4,-2.229019E4,-2.9735957E4,-1.3121252E4,-2.3369605E4,-3.970274E3,1.30013545E4,5.5580117E3,2.3550288E3,2.7464137E4,7.444892E3,5.203201E4,9.044297E3,6.5323833E3,3.6092505E3,7.2351266E4,1.24003365E2,-1.8879217E4,-2.7384402E4,-2.0221866E3,-2.7443666E4,-1.437917E4,-2.6602954E3,-2.395045E4,-9.697129E3,3.1482928E2,-8.169337E3,6.005683E3,1.7195537E4,1.7504695E4,3.9690434E4,9.504639E3,-3.5269854E3,3.4567754E4,5.761709E4,6.126736E3,1.3444054E3,4.4339985E3,1.3453379E3,-1.2469648E3,-8.37214E2,-2.7582152E4,-3.4099664E2,-2.8002387E4,-8.714163E2,-1.3749258E4,-1.3633585E3,-5.133719E3,7.260096E3,-2.5051707E4,-9.190509E2,-6.3127466E2,-1.6729665E2,-4.8930896E2,1.9671765E3,-1.1639027E4,-5.404233E3,1.1169287E4,-1.7660374E3,1.1523582E4,2.0383766E4,1.8737598E4,-1.134437E4,4.510381E4,-3.0137957E3,5.591056E3,1.124639E4,9.587562E2,-4.95145E2,2.391323E4,2.503238E3,4.8109902E4,3.9149321E3,1.1329334E4,8.581278E2,-1.1565029E3,-1.7088413E3,-2.8087172E4,-4.3819666E2,-1.209143E4,-1.6382291E4,-3.1546225E2,-6.2144385E3,3.100336E1,4.9787228E2,-2.6148717E4,-1.1599714E3,-6.740771E3,2.6431292E3,-1.2199556E4,5.9568604E2,-4.0108386E3,-1.2593442E4,6.9224475E2,2.5965506E2,8.4852716E2,-5.1882295E3,1.50999E4,4.113831E3,2.3504768E4,1.6500023E4,1.6599824E4,1.769356E3,3.100336E1,-1.0519967E3,4.6265406E4,9.213378E2,-5.4332437E3,2.7250336E2,5.9416416E3,3.100336E1,1.1615308E4,6.070336E1,1.5630208E1,9.493781E1,1.791781E3,9.580505E2,3.280034E2,4.8918086E4,7.212395E2,9.1003365E1,-4.6554624E3,4.438507E3,-1.6898624E3,-4.7899667E2,-7.595139E2,-3.549871E2,-1.0168992E3,-4.2042282E2,-1.7899664E2,4.8885376E1,-4.026884E2,-1.3799496E2,-9.149278E2,-1.6046056E3,-6.868901E2,-2.9225819E1,3.116356E2,-1.6953388E1,-7.6848975E2,1.6887296E2,-2.9111517E2,3.0521417E2,-7.801332E2,-1.1909496E2,-4.842774E1,8.9849106E1,1.0033594E0,-3.353938E2,7.390664E2,1.0931139E3,2.038188E2,4.675034E2,1.5450734E3,1.0303491E3,8.331922E2,1.2733895E3,4.1766632E2,1.2388477E3,2.8953242E3,1.4088214E3,-6.1996643E1,-3.7649496E2,3.8103952E2,3.100336E1,1.7800337E2,7.111231E2,3.7033596E0,-2.2966406E0,3.1008342E3,2.0283062E3,1.0033594E0,-3.3559464E2,4.8925433E2,-3.426622E2],"categories":[],"categories_nodes":[],"categories_segments":[],"categories_sizes":[],"default_left":[0,0,0,0,0,0,0,0,0,0,0,0,0,0,0,0,0,0,0,0,0,0,0,0,0,0,0,0,0,0,0,0,0,0,0,0,0,0,0,0,0,0,0,0,0,0,0,0,0,0,0,0,0,0,0,0,0,0,0,0,0,0,0,0,0,0,0,0,0,0,0,0,0,0,0,0,0,0,0,0,0,0,0,0,0,0,0,0,0,0,0,0,0,0,0,0,0,0,0,0,0,0,0,0,0,0,0,0,0,0,0,0,0,0,0,0,0,0,0,0,0,0,0,0,0,0,0,0,0,0,0,0,0,0,0,0,0,0,0,0,0,0,0,0,0,0,0,0,0,0,0,0,0,0,0,0,0,0,0,0,0,0,0,0,0,0,0,0,0,0,0,0,0,0,0,0,0,0,0,0,0,0,0,0,0,0,0,0,0],"id":1,"left_children":[1,3,5,7,9,11,13,15,17,19,21,23,25,27,29,31,33,35,37,39,41,-1,-1,43,45,47,49,-1,-1,51,-1,53,55,-1,57,59,61,63,65,67,69,71,73,75,77,79,81,83,85,87,-1,-1,-1,-1,-1,89,-1,91,-1,93,-1,95,97,99,-1,-1,-1,101,-1,103,105,107,109,111,113,115,117,119,121,123,125,127,-1,129,-1,131,-1,133,135,-1,-1,137,-1,139,141,143,145,-1,-1,147,-1,149,151,153,-1,155,157,-1,-1,159,161,163,165,167,169,171,-1,-1,-1,173,-1,175,-1,177,-1,179,-1,181,-1,-1,-1,-1,183,-1,-1,185,187,-1,-1,-1,-1,-1,-1,-1,-1,-1,-1,-1,-1,-1,-1,-1,-1,-1,-1,-1,-1,-1,-1,-1,-1,-1,-1,-1,-1,-1,-1,-1,-1,-1,-1,-1,-1,-1,-1,-1,-1,-1,-1,-1,-1,-1,-1,-1,-1,-1,-1,-1,-1],"loss_changes":[1.1126015E12,2.576046E11,2.479622E11,2.3555375E10,1.8439818E11,3.8812385E10,2.1168062E10,5.6874107E9,7.946461E9,5.235503E10,2.2339453E10,1.225121E10,4.309795E10,7.6671877E9,4.5573243E9,3.1320064E9,1.3939999E9,3.856814E9,6.095585E8,3.0033588E10,5.882315E9,0E0,0E0,1.1725472E10,1.07309005E9,1.0688397E10,1.0322936E9,0E0,0E0,2.3639327E9,0E0,9.195274E8,1.9513344E8,0E0,7.988347E8,1.0750771E9,8.470033E8,5.764833E8,4.825984E6,2.1610279E10,8.0248873E9,3.1498724E9,2.0617093E9,2.2755164E9,1.0538762E10,2.0296371E8,1.7748853E8,1.5934792E9,3.8989005E9,7.0294976E8,0E0,0E0,0E0,0E0,0E0,5.5640064E7,0E0,7.390822E7,0E0,8.844616E8,0E0,1.3863354E8,4.469901E7,4.6546944E7,0E0,0E0,0E0,1.5840329E10,0E0,4.630311E9,4.667687E9,6.844518E7,2.9072368E8,1.2098637E9,5.818634E8,7.976223E8,2.2928144E8,6.7178496E8,1.3435739E8,2.183568E7,8.641818E7,2.9156555E6,0E0,2.7956736E8,0E0,1.35236E9,0E0,6.995597E7,2.970337E8,0E0,0E0,2.0381696E7,0E0,4.7142707E8,3.7475942E8,2.0521928E7,2.7368512E7,0E0,0E0,5.244109E7,0E0,7.942827E9,4.0239337E9,3.3621606E9,0E0,3.0548485E9,3.0376653E8,0E0,0E0,2.1623228E7,2.9362688E7,5.3236736E7,1.8352192E7,1.552466E8,1.8669363E8,1.7679585E9,0E0,0E0,0E0,5.899469E8,0E0,1.2032928E7,0E0,2.5563904E7,0E0,1.60256E7,0E0,9.816772E3,0E0,0E0,0E0,0E0,1.7340826E8,0E0,0E0,2.6382464E7,3.85986E8,0E0,0E0,0E0,0E0,0E0,0E0,0E0,0E0,0E0,0E0,0E0,0E0,0E0,0E0,0E0,0E0,0E0,0E0,0E0,0E0,0E0,0E0,0E0,0E0,0E0,0E0,0E0,0E0,0E0,0E0,0E0,0E0,0E0,0E0,0E0,0E0,0E0,0E0,0E0,0E0,0E0,0E0,0E0,0E0,0E0,0E0,0E0,0E0,0E0,0E0,0E0,0E0],"parents":[2147483647,0,0,1,1,2,2,3,3,4,4,5,5,6,6,7,7,8,8,9,9,10,10,11,11,12,12,13,13,14,14,15,15,16,16,17,17,18,18,19,19,20,20,23,23,24,24,25,25,26,26,29,29,31,31,32,32,34,34,35,35,36,36,37,37,38,38,39,39,40,40,41,41,42,42,43,43,44,44,45,45,46,46,47,47,48,48,49,49,55,55,57,57,59,59,61,61,62,62,63,63,67,67,69,69,70,70,71,71,72,72,73,73,74,74,75,75,76,76,77,77,78,78,79,79,80,80,81,81,83,83,85,85,87,87,88,88,91,91,93,93,94,94,95,95,96,96,99,99,101,101,102,102,103,103,105,105,106,106,109,109,110,110,111,111,112,112,113,113,114,114,115,115,119,119,121,121,123,123,125,125,127,127,132,132,135,135,136,136],"right_children":[2,4,6,8,10,12,14,16,18,20,22,24,26,28,30,32,34,36,38,40,42,-1,-1,44,46,48,50,-1,-1,52,-1,54,56,-1,58,60,62,64,66,68,70,72,74,76,78,80,82,84,86,88,-1,-1,-1,-1,-1,90,-1,92,-1,94,-1,96,98,100,-1,-1,-1,102,-1,104,106,108,110,112,114,116,118,120,122,124,126,128,-1,130,-1,132,-1,134,136,-1,-1,138,-1,140,142,144,146,-1,-1,148,-1,150,152,154,-1,156,158,-1,-1,160,162,164,166,168,170,172,-1,-1,-1,174,-1,176,-1,178,-1,180,-1,182,-1,-1,-1,-1,184,-1,-1,186,188,-1,-1,-1,-1,-1,-1,-1,-1,-1,-1,-1,-1,-1,-1,-1,-1,-1,-1,-1,-1,-1,-1,-1,-1,-1,-1,-1,-1,-1,-1,-1,-1,-1,-1,-1,-1,-1,-1,-1,-1,-1,-1,-1,-1,-1,-1,-1,-1,-1,-1,-1,-1],"split_conditions":[8.9E1,6.6E1,3.73E2,5.45E1,1E0,1E0,8.333333E-1,6.666667E-1,1.5833334E0,1E0,8.3333336E-2,1E0,1E0,1.11E2,2E0,1.09E2,4.2E1,1E0,1E0,9.166667E-1,2.31E2,5.5580117E3,2.3550288E3,1E0,1.9E4,1E0,3.15E2,6.5323833E3,3.6092505E3,2.75E0,1.24003365E2,1E0,5.2E1,-2.0221866E3,6E0,1E0,1E0,1E0,1.21E4,1E0,1E0,4.1666666E-1,1E0,2.0833333E0,1.8333334E0,1E0,4.3E4,2.2E2,1E0,1.8333334E0,1.3444054E3,4.4339985E3,1.3453379E3,-1.2469648E3,-8.37214E2,3.3E1,-3.4099664E2,3E0,-8.714163E2,8.333333E-1,-1.3633585E3,8.3333336E-2,4.92E3,1.65E2,-9.190509E2,-6.3127466E2,-1.6729665E2,7.28E1,1.9671765E3,1E0,1E0,1E0,1.9166666E0,8.3333336E-2,6.666667E-1,1E0,6.5E3,1E0,3.8E4,1.0833334E0,1.1666666E0,2.4E4,-4.95145E2,1E0,2.503238E3,2.45E2,3.9149321E3,3.6E4,1E0,-1.1565029E3,-1.7088413E3,1E0,-4.3819666E2,1E0,1E0,1E0,1E0,3.100336E1,4.9787228E2,1.15E4,-1.1599714E3,1.65E2,1E0,8.3E1,5.9568604E2,1E0,5E2,6.9224475E2,2.5965506E2,7.9E3,1E0,1E0,1.6666666E0,1E0,1E0,1.85E2,1.769356E3,3.100336E1,-1.0519967E3,1E0,9.213378E2,1.764E4,2.7250336E2,1E0,3.100336E1,1E0,6.070336E1,1.9852E4,9.493781E1,1.791781E3,9.580505E2,3.280034E2,1.9E4,7.212395E2,9.1003365E1,1E0,1E0,-1.6898624E3,-4.7899667E2,-7.595139E2,-3.549871E2,-1.0168992E3,-4.2042282E2,-1.7899664E2,4.8885376E1,-4.026884E2,-1.3799496E2,-9.149278E2,-1.6046056E3,-6.868901E2,-2.9225819E1,3.116356E2,-1.6953388E1,-7.6848975E2,1.6887296E2,-2.9111517E2,3.0521417E2,-7.801332E2,-1.1909496E2,-4.842774E1,8.9849106E1,1.0033594E0,-3.353938E2,7.390664E2,1.0931139E3,2.038188E2,4.675034E2,1.5450734E3,1.0303491E3,8.331922E2,1.2733895E3,4.1766632E2,1.2388477E3,2.8953242E3,1.4088214E3,-6.1996643E1,-3.7649496E2,3.8103952E2,3.100336E1,1.7800337E2,7.111231E2,3.7033596E0,-2.2966406E0,3.1008342E3,2.0283062E3,1.0033594E0,-3.3559464E2,4.8925433E2,-3.426622E2],"split_indices":[4,4,3,4,62,35,5,5,5,40,5,47,95,4,0,3,4,179,39,5,3,0,0,179,1,179,3,0,0,5,0,42,4,0,2,55,28,65,1,151,179,5,179,5,5,179,1,3,54,5,0,0,0,0,0,4,0,5,0,5,0,5,1,3,0,0,0,4,0,117,137,38,5,5,5,180,1,40,1,5,5,1,0,15,0,3,0,1,19,0,0,39,0,65,75,10,22,0,0,1,0,3,181,4,0,102,3,0,0,1,11,25,5,12,28,3,0,0,0,50,0,1,0,171,0,6,0,1,0,0,0,0,1,0,0,8,12,0,0,0,0,0,0,0,0,0,0,0,0,0,0,0,0,0,0,0,0,0,0,0,0,0,0,0,0,0,0,0,0,0,0,0,0,0,0,0,0,0,0,0,0,0,0,0,0,0,0,0,0],"split_type":[0,0,0,0,0,0,0,0,0,0,0,0,0,0,0,0,0,0,0,0,0,0,0,0,0,0,0,0,0,0,0,0,0,0,0,0,0,0,0,0,0,0,0,0,0,0,0,0,0,0,0,0,0,0,0,0,0,0,0,0,0,0,0,0,0,0,0,0,0,0,0,0,0,0,0,0,0,0,0,0,0,0,0,0,0,0,0,0,0,0,0,0,0,0,0,0,0,0,0,0,0,0,0,0,0,0,0,0,0,0,0,0,0,0,0,0,0,0,0,0,0,0,0,0,0,0,0,0,0,0,0,0,0,0,0,0,0,0,0,0,0,0,0,0,0,0,0,0,0,0,0,0,0,0,0,0,0,0,0,0,0,0,0,0,0,0,0,0,0,0,0,0,0,0,0,0,0,0,0,0,0,0,0,0,0,0,0,0,0],"sum_hessian":[3.184E3,2.77E3,4.14E2,8.63E2,1.907E3,3.04E2,1.1E2,4.63E2,4E2,1.871E3,3.6E1,1.46E2,1.58E2,5.8E1,5.2E1,2.09E2,2.54E2,2.95E2,1.05E2,1.668E3,2.03E2,1.9E1,1.7E1,1.01E2,4.5E1,1.29E2,2.9E1,5E1,8E0,5.1E1,1E0,1.28E2,8.1E1,8.8E1,1.66E2,2.63E2,3.2E1,1E2,5E0,8.26E2,8.42E2,7.7E1,1.26E2,5.7E1,4.4E1,3.8E1,7E0,3.3E1,9.6E1,2.5E1,4E0,4.9E1,2E0,9E1,3.8E1,8E1,1E0,1.58E2,8E0,2.47E2,1.6E1,2.6E1,6E0,8.7E1,1.3E1,4E0,1E0,8.07E2,1.9E1,3.72E2,4.7E2,4.6E1,3.1E1,4.7E1,7.9E1,5.5E1,2E0,3.9E1,5E0,1.3E1,2.5E1,4E0,3E0,1.5E1,1.8E1,4.6E1,5E1,1.2E1,1.3E1,1E1,7E1,1.57E2,1E0,1.55E2,9.2E1,5E0,2.1E1,1E0,5E0,7E1,1.7E1,2.69E2,5.38E2,3.63E2,9E0,3.95E2,7.5E1,4.3E1,3E0,1.8E1,1.3E1,3.1E1,1.6E1,4.1E1,3.8E1,4.8E1,7E0,1E0,1E0,3.7E1,2E0,4E0,1E0,1.2E1,1E0,2.4E1,1E0,2E0,2E0,7E0,8E0,1E0,4.5E1,1.1E1,1E0,5E0,8E0,1.56E2,1E0,1.41E2,1.4E1,8.6E1,6E0,1E0,4E0,1.8E1,3E0,5E0,6.5E1,1.53E2,1.16E2,2.87E2,2.51E2,3.49E2,1.4E1,3.62E2,3.3E1,7.2E1,3E0,5E0,1.3E1,1E0,1.2E1,1.9E1,1.2E1,1.5E1,1E0,2.8E1,1.3E1,2.7E1,1.1E1,1.5E1,3.3E1,3.3E1,4E0,1E0,3E0,1.1E1,1E0,1E0,2.3E1,1E0,1E0,3.6E1,9E0,1E0,4E0,6E0,2E0],"tree_param":{"num_deleted":"0","num_feature":"182","num_nodes":"189","size_leaf_vector":"1"}},{"base_weights":[-5.88697E-5,-7.2319053E3,4.8288215E4,-2.155634E4,-7.415785E2,3.3374746E4,8.883164E4,-2.6430191E4,-1.5863015E4,-2.1229224E3,6.9167E4,2.1386441E4,4.4248367E4,1.0328666E5,7.106413E4,-2.229019E4,-2.9735957E4,-1.3121252E4,-2.3369605E4,-3.970274E3,1.30013545E4,5.5580117E3,2.3550288E3,2.7464137E4,7.444892E3,5.203201E4,9.044297E3,6.5323833E3,3.6092505E3,7.2351266E4,1.24003365E2,-1.8879217E4,-2.7384402E4,-2.0221866E3,-2.7443666E4,-1.437917E4,-2.6602954E3,-2.395045E4,-9.697129E3,3.1482928E2,-8.169337E3,6.005683E3,1.7195537E4,1.7504695E4,3.9690434E4,9.504639E3,-3.5269854E3,3.4567754E4,5.761709E4,6.126736E3,1.3444054E3,4.4339985E3,1.3453379E3,-1.2469648E3,-8.37214E2,-2.7582152E4,-3.4099664E2,-2.8002387E4,-8.714163E2,-1.3749258E4,-1.3633585E3,-5.133719E3,7.260096E3,-2.5051707E4,-9.190509E2,-6.3127466E2,-1.6729665E2,-4.8930896E2,1.9671765E3,-1.1639027E4,-5.404233E3,1.1169287E4,-1.7660374E3,1.1523582E4,2.0383766E4,1.8737598E4,-1.134437E4,4.510381E4,-3.0137957E3,5.591056E3,1.124639E4,9.587562E2,-4.95145E2,2.391323E4,2.503238E3,4.8109902E4,3.9149321E3,1.1329334E4,8.581278E2,-1.1565029E3,-1.7088413E3,-2.8087172E4,-4.3819666E2,-1.209143E4,-1.6382291E4,-3.1546225E2,-6.2144385E3,3.100336E1,4.9787228E2,-2.6148717E4,-1.1599714E3,-6.740771E3,2.6431292E3,-1.2199556E4,5.9568604E2,-4.0108386E3,-1.2593442E4,6.9224475E2,2.5965506E2,8.4852716E2,-5.1882295E3,1.50999E4,4.113831E3,2.3504768E4,1.6500023E4,1.6599824E4,1.769356E3,3.100336E1,-1.0519967E3,4.6265406E4,9.213378E2,-5.4332437E3,2.7250336E2,5.9416416E3,3.100336E1,1.1615308E4,6.070336E1,1.5630208E1,9.493781E1,1.791781E3,9.580505E2,3.280034E2,4.8918086E4,7.212395E2,9.1003365E1,-4.6554624E3,4.438507E3,-1.6898624E3,-4.7899667E2,-7.595139E2,-3.549871E2,-1.0168992E3,-4.2042282E2,-1.7899664E2,4.8885376E1,-4.026884E2,-1.3799496E2,-9.149278E2,-1.6046056E3,-6.868901E2,-2.9225819E1,3.116356E2,-1.6953388E1,-7.6848975E2,1.6887296E2,-2.9111517E2,3.0521417E2,-7.801332E2,-1.1909496E2,-4.842774E1,8.9849106E1,1.0033594E0,-3.353938E2,7.390664E2,1.0931139E3,2.038188E2,4.675034E2,1.5450734E3,1.0303491E3,8.331922E2,1.2733895E3,4.1766632E2,1.2388477E3,2.8953242E3,1.4088214E3,-6.1996643E1,-3.7649496E2,3.8103952E2,3.100336E1,1.7800337E2,7.111231E2,3.7033596E0,-2.2966406E0,3.1008342E3,2.0283062E3,1.0033594E0,-3.3559464E2,4.8925433E2,-3.426622E2],"categories":[],"categories_nodes":[],"categories_segments":[],"categories_sizes":[],"default_left":[0,0,0,0,0,0,0,0,0,0,0,0,0,0,0,0,0,0,0,0,0,0,0,0,0,0,0,0,0,0,0,0,0,0,0,0,0,0,0,0,0,0,0,0,0,0,0,0,0,0,0,0,0,0,0,0,0,0,0,0,0,0,0,0,0,0,0,0,0,0,0,0,0,0,0,0,0,0,0,0,0,0,0,0,0,0,0,0,0,0,0,0,0,0,0,0,0,0,0,0,0,0,0,0,0,0,0,0,0,0,0,0,0,0,0,0,0,0,0,0,0,0,0,0,0,0,0,0,0,0,0,0,0,0,0,0,0,0,0,0,0,0,0,0,0,0,0,0,0,0,0,0,0,0,0,0,0,0,0,0,0,0,0,0,0,0,0,0,0,0,0,0,0,0,0,0,0,0,0,0,0,0,0,0,0,0,0,0,0],"id":2,"left_children":[1,3,5,7,9,11,13,15,17,19,21,23,25,27,29,31,33,35,37,39,41,-1,-1,43,45,47,49,-1,-1,51,-1,53,55,-1,57,59,61,63,65,67,69,71,73,75,77,79,81,83,85,87,-1,-1,-1,-1,-1,89,-1,91,-1,93,-1,95,97,99,-1,-1,-1,101,-1,103,105,107,109,111,113,115,117,119,121,123,125,127,-1,129,-1,131,-1,133,135,-1,-1,137,-1,139,141,143,145,-1,-1,147,-1,149,151,153,-1,155,157,-1,-1,159,161,163,165,167,169,171,-1,-1,-1,173,-1,175,-1,177,-1,179,-1,181,-1,-1,-1,-1,183,-1,-1,185,187,-1,-1,-1,-1,-1,-1,-1,-1,-1,-1,-1,-1,-1,-1,-1,-1,-1,-1,-1,-1,-1,-1,-1,-1,-1,-1,-1,-1,-1,-1,-1,-1,-1,-1,-1,-1,-1,-1,-1,-1,-1,-1,-1,-1,-1,-1,-1,-1,-1,-1,-1,-1],"loss_changes":[1.1126015E12,2.576046E11,2.479622E11,2.3555375E10,1.8439818E11,3.8812385E10,2.1168062E10,5.6874107E9,7.946461E9,5.235503E10,2.2339453E10,1.225121E10,4.309795E10,7.6671877E9,4.5573243E9,3.1320064E9,1.3939999E9,3.856814E9,6.095585E8,3.0033588E10,5.882315E9,0E0,0E0,1.1725472E10,1.07309005E9,1.0688397E10,1.0322936E9,0E0,0E0,2.3639327E9,0E0,9.195274E8,1.9513344E8,0E0,7.988347E8,1.0750771E9,8.470033E8,5.764833E8,4.825984E6,2.1610279E10,8.0248873E9,3.1498724E9,2.0617093E9,2.2755164E9,1.0538762E10,2.0296371E8,1.7748853E8,1.5934792E9,3.8989005E9,7.0294976E8,0E0,0E0,0E0,0E0,0E0,5.5640064E7,0E0,7.390822E7,0E0,8.844616E8,0E0,1.3863354E8,4.469901E7,4.6546944E7,0E0,0E0,0E0,1.5840329E10,0E0,4.630311E9,4.667687E9,6.844518E7,2.9072368E8,1.2098637E9,5.818634E8,7.976223E8,2.2928144E8,6.7178496E8,1.3435739E8,2.183568E7,8.641818E7,2.9156555E6,0E0,2.7956736E8,0E0,1.35236E9,0E0,6.995597E7,2.970337E8,0E0,0E0,2.0381696E7,0E0,4.7142707E8,3.7475942E8,2.0521928E7,2.7368512E7,0E0,0E0,5.244109E7,0E0,7.942827E9,4.0239337E9,3.3621606E9,0E0,3.0548485E9,3.0376653E8,0E0,0E0,2.1623228E7,2.9362688E7,5.3236736E7,1.8352192E7,1.552466E8,1.8669363E8,1.7679585E9,0E0,0E0,0E0,5.899469E8,0E0,1.2032928E7,0E0,2.5563904E7,0E0,1.60256E7,0E0,9.816772E3,0E0,0E0,0E0,0E0,1.7340826E8,0E0,0E0,2.6382464E7,3.85986E8,0E0,0E0,0E0,0E0,0E0,0E0,0E0,0E0,0E0,0E0,0E0,0E0,0E0,0E0,0E0,0E0,0E0,0E0,0E0,0E0,0E0,0E0,0E0,0E0,0E0,0E0,0E0,0E0,0E0,0E0,0E0,0E0,0E0,0E0,0E0,0E0,0E0,0E0,0E0,0E0,0E0,0E0,0E0,0E0,0E0,0E0,0E0,0E0,0E0,0E0,0E0,0E0],"parents":[2147483647,0,0,1,1,2,2,3,3,4,4,5,5,6,6,7,7,8,8,9,9,10,10,11,11,12,12,13,13,14,14,15,15,16,16,17,17,18,18,19,19,20,20,23,23,24,24,25,25,26,26,29,29,31,31,32,32,34,34,35,35,36,36,37,37,38,38,39,39,40,40,41,41,42,42,43,43,44,44,45,45,46,46,47,47,48,48,49,49,55,55,57,57,59,59,61,61,62,62,63,63,67,67,69,69,70,70,71,71,72,72,73,73,74,74,75,75,76,76,77,77,78,78,79,79,80,80,81,81,83,83,85,85,87,87,88,88,91,91,93,93,94,94,95,95,96,96,99,99,101,101,102,102,103,103,105,105,106,106,109,109,110,110,111,111,112,112,113,113,114,114,115,115,119,119,121,121,123,123,125,125,127,127,132,132,135,135,136,136],"right_children":[2,4,6,8,10,12,14,16,18,20,22,24,26,28,30,32,34,36,38,40,42,-1,-1,44,46,48,50,-1,-1,52,-1,54,56,-1,58,60,62,64,66,68,70,72,74,76,78,80,82,84,86,88,-1,-1,-1,-1,-1,90,-1,92,-1,94,-1,96,98,100,-1,-1,-1,102,-1,104,106,108,110,112,114,116,118,120,122,124,126,128,-1,130,-1,132,-1,134,136,-1,-1,138,-1,140,142,144,146,-1,-1,148,-1,150,152,154,-1,156,158,-1,-1,160,162,164,166,168,170,172,-1,-1,-1,174,-1,176,-1,178,-1,180,-1,182,-1,-1,-1,-1,184,-1,-1,186,188,-1,-1,-1,-1,-1,-1,-1,-1,-1,-1,-1,-1,-1,-1,-1,-1,-1,-1,-1,-1,-1,-1,-1,-1,-1,-1,-1,-1,-1,-1,-1,-1,-1,-1,-1,-1,-1,-1,-1,-1,-1,-1,-1,-1,-1,-1,-1,-1,-1,-1,-1,-1],"split_conditions":[8.9E1,6.6E1,3.73E2,5.45E1,1E0,1E0,8.333333E-1,6.666667E-1,1.5833334E0,1E0,8.3333336E-2,1E0,1E0,1.11E2,2E0,1.09E2,4.2E1,1E0,1E0,9.166667E-1,2.31E2,5.5580117E3,2.3550288E3,1E0,1.9E4,1E0,3.15E2,6.5323833E3,3.6092505E3,2.75E0,1.24003365E2,1E0,5.2E1,-2.0221866E3,6E0,1E0,1E0,1E0,1.21E4,1E0,1E0,4.1666666E-1,1E0,2.0833333E0,1.8333334E0,1E0,4.3E4,2.2E2,1E0,1.8333334E0,1.3444054E3,4.4339985E3,1.3453379E3,-1.2469648E3,-8.37214E2,3.3E1,-3.4099664E2,3E0,-8.714163E2,8.333333E-1,-1.3633585E3,8.3333336E-2,4.92E3,1.65E2,-9.190509E2,-6.3127466E2,-1.6729665E2,7.28E1,1.9671765E3,1E0,1E0,1E0,1.9166666E0,8.3333336E-2,6.666667E-1,1E0,6.5E3,1E0,3.8E4,1.0833334E0,1.1666666E0,2.4E4,-4.95145E2,1E0,2.503238E3,2.45E2,3.9149321E3,3.6E4,1E0,-1.1565029E3,-1.7088413E3,1E0,-4.3819666E2,1E0,1E0,1E0,1E0,3.100336E1,4.9787228E2,1.15E4,-1.1599714E3,1.65E2,1E0,8.3E1,5.9568604E2,1E0,5E2,6.9224475E2,2.5965506E2,7.9E3,1E0,1E0,1.6666666E0,1E0,1E0,1.85E2,1.769356E3,3.100336E1,-1.0519967E3,1E0,9.213378E2,1.764E4,2.7250336E2,1E0,3.100336E1,1E0,6.070336E1,1.9852E4,9.493781E1,1.791781E3,9.580505E2,3.280034E2,1.9E4,7.212395E2,9.1003365E1,1E0,1E0,-1.6898624E3,-4.7899667E2,-7.595139E2,-3.549871E2,-1.0168992E3,-4.2042282E2,-1.7899664E2,4.8885376E1,-4.026884E2,-1.3799496E2,-9.149278E2,-1.6046056E3,-6.868901E2,-2.9225819E1,3.116356E2,-1.6953388E1,-7.6848975E2,1.6887296E2,-2.9111517E2,3.0521417E2,-7.801332E2,-1.1909496E2,-4.842774E1,8.9849106E1,1.0033594E0,-3.353938E2,7.390664E2,1.0931139E3,2.038188E2,4.675034E2,1.5450734E3,1.0303491E3,8.331922E2,1.2733895E3,4.1766632E2,1.2388477E3,2.8953242E3,1.4088214E3,-6.1996643E1,-3.7649496E2,3.8103952E2,3.100336E1,1.7800337E2,7.111231E2,3.7033596E0,-2.2966406E0,3.1008342E3,2.0283062E3,1.0033594E0,-3.3559464E2,4.8925433E2,-3.426622E2],"split_indices":[4,4,3,4,62,35,5,5,5,40,5,47,95,4,0,3,4,179,39,5,3,0,0,179,1,179,3,0,0,5,0,42,4,0,2,55,28,65,1,151,179,5,179,5,5,179,1,3,54,5,0,0,0,0,0,4,0,5,0,5,0,5,1,3,0,0,0,4,0,117,137,38,5,5,5,180,1,40,1,5,5,1,0,15,0,3,0,1,19,0,0,39,0,65,75,10,22,0,0,1,0,3,181,4,0,102,3,0,0,1,11,25,5,12,28,3,0,0,0,50,0,1,0,171,0,6,0,1,0,0,0,0,1,0,0,8,12,0,0,0,0,0,0,0,0,0,0,0,0,0,0,0,0,0,0,0,0,0,0,0,0,0,0,0,0,0,0,0,0,0,0,0,0,0,0,0,0,0,0,0,0,0,0,0,0,0,0,0,0],"split_type":[0,0,0,0,0,0,0,0,0,0,0,0,0,0,0,0,0,0,0,0,0,0,0,0,0,0,0,0,0,0,0,0,0,0,0,0,0,0,0,0,0,0,0,0,0,0,0,0,0,0,0,0,0,0,0,0,0,0,0,0,0,0,0,0,0,0,0,0,0,0,0,0,0,0,0,0,0,0,0,0,0,0,0,0,0,0,0,0,0,0,0,0,0,0,0,0,0,0,0,0,0,0,0,0,0,0,0,0,0,0,0,0,0,0,0,0,0,0,0,0,0,0,0,0,0,0,0,0,0,0,0,0,0,0,0,0,0,0,0,0,0,0,0,0,0,0,0,0,0,0,0,0,0,0,0,0,0,0,0,0,0,0,0,0,0,0,0,0,0,0,0,0,0,0,0,0,0,0,0,0,0,0,0,0,0,0,0,0,0],"sum_hessian":[3.184E3,2.77E3,4.14E2,8.63E2,1.907E3,3.04E2,1.1E2,4.63E2,4E2,1.871E3,3.6E1,1.46E2,1.58E2,5.8E1,5.2E1,2.09E2,2.54E2,2.95E2,1.05E2,1.668E3,2.03E2,1.9E1,1.7E1,1.01E2,4.5E1,1.29E2,2.9E1,5E1,8E0,5.1E1,1E0,1.28E2,8.1E1,8.8E1,1.66E2,2.63E2,3.2E1,1E2,5E0,8.26E2,8.42E2,7.7E1,1.26E2,5.7E1,4.4E1,3.8E1,7E0,3.3E1,9.6E1,2.5E1,4E0,4.9E1,2E0,9E1,3.8E1,8E1,1E0,1.58E2,8E0,2.47E2,1.6E1,2.6E1,6E0,8.7E1,1.3E1,4E0,1E0,8.07E2,1.9E1,3.72E2,4.7E2,4.6E1,3.1E1,4.7E1,7.9E1,5.5E1,2E0,3.9E1,5E0,1.3E1,2.5E1,4E0,3E0,1.5E1,1.8E1,4.6E1,5E1,1.2E1,1.3E1,1E1,7E1,1.57E2,1E0,1.55E2,9.2E1,5E0,2.1E1,1E0,5E0,7E1,1.7E1,2.69E2,5.38E2,3.63E2,9E0,3.95E2,7.5E1,4.3E1,3E0,1.8E1,1.3E1,3.1E1,1.6E1,4.1E1,3.8E1,4.8E1,7E0,1E0,1E0,3.7E1,2E0,4E0,1E0,1.2E1,1E0,2.4E1,1E0,2E0,2E0,7E0,8E0,1E0,4.5E1,1.1E1,1E0,5E0,8E0,1.56E2,1E0,1.41E2,1.4E1,8.6E1,6E0,1E0,4E0,1.8E1,3E0,5E0,6.5E1,1.53E2,1.16E2,2.87E2,2.51E2,3.49E2,1.4E1,3.62E2,3.3E1,7.2E1,3E0,5E0,1.3E1,1E0,1.2E1,1.9E1,1.2E1,1.5E1,1E0,2.8E1,1.3E1,2.7E1,1.1E1,1.5E1,3.3E1,3.3E1,4E0,1E0,3E0,1.1E1,1E0,1E0,2.3E1,1E0,1E0,3.6E1,9E0,1E0,4E0,6E0,2E0],"tree_param":{"num_deleted":"0","num_feature":"182","num_nodes":"189","size_leaf_vector":"1"}},{"base_weights":[-5.88697E-5,-7.2319053E3,4.8288215E4,-2.155634E4,-7.415785E2,3.3374746E4,8.883164E4,-2.6430191E4,-1.5863015E4,-2.1229224E3,6.9167E4,2.1386441E4,4.4248367E4,1.0328666E5,7.106413E4,-2.229019E4,-2.9735957E4,-1.3121252E4,-2.3369605E4,-3.970274E3,1.30013545E4,5.5580117E3,2.3550288E3,2.7464137E4,7.444892E3,5.203201E4,9.044297E3,6.5323833E3,3.6092505E3,7.2351266E4,1.24003365E2,-1.8879217E4,-2.7384402E4,-2.0221866E3,-2.7443666E4,-1.437917E4,-2.6602954E3,-2.395045E4,-9.697129E3,3.1482928E2,-8.169337E3,6.005683E3,1.7195537E4,1.7504695E4,3.9690434E4,9.504639E3,-3.5269854E3,3.4567754E4,5.761709E4,6.126736E3,1.3444054E3,4.4339985E3,1.3453379E3,-1.2469648E3,-8.37214E2,-2.7582152E4,-3.4099664E2,-2.8002387E4,-8.714163E2,-1.3749258E4,-1.3633585E3,-5.133719E3,7.260096E3,-2.5051707E4,-9.190509E2,-6.3127466E2,-1.6729665E2,-4.8930896E2,1.9671765E3,-1.1639027E4,-5.404233E3,1.1169287E4,-1.7660374E3,1.1523582E4,2.0383766E4,1.8737598E4,-1.134437E4,4.510381E4,-3.0137957E3,5.591056E3,1.124639E4,9.587562E2,-4.95145E2,2.391323E4,2.503238E3,4.8109902E4,3.9149321E3,1.1329334E4,8.581278E2,-1.1565029E3,-1.7088413E3,-2.8087172E4,-4.3819666E2,-1.209143E4,-1.6382291E4,-3.1546225E2,-6.2144385E3,3.100336E1,4.9787228E2,-2.6148717E4,-1.1599714E3,-6.740771E3,2.6431292E3,-1.2199556E4,5.9568604E2,-4.0108386E3,-1.2593442E4,6.9224475E2,2.5965506E2,8.4852716E2,-5.1882295E3,1.50999E4,4.113831E3,2.3504768E4,1.6500023E4,1.6599824E4,1.769356E3,3.100336E1,-1.0519967E3,4.6265406E4,9.213378E2,-5.4332437E3,2.7250336E2,5.9416416E3,3.100336E1,1.1615308E4,6.070336E1,1.5630208E1,9.493781E1,1.791781E3,9.580505E2,3.280034E2,4.8918086E4,7.212395E2,9.1003365E1,-4.6554624E3,4.438507E3,-1.6898624E3,-4.7899667E2,-7.595139E2,-3.549871E2,-1.0168992E3,-4.2042282E2,-1.7899664E2,4.8885376E1,-4.026884E2,-1.3799496E2,-9.149278E2,-1.6046056E3,-6.868901E2,-2.9225819E1,3.116356E2,-1.6953388E1,-7.6848975E2,1.6887296E2,-2.9111517E2,3.0521417E2,-7.801332E2,-1.1909496E2,-4.842774E1,8.9849106E1,1.0033594E0,-3.353938E2,7.390664E2,1.0931139E3,2.038188E2,4.675034E2,1.5450734E3,1.0303491E3,8.331922E2,1.2733895E3,4.1766632E2,1.2388477E3,2.8953242E3,1.4088214E3,-6.1996643E1,-3.7649496E2,3.8103952E2,3.100336E1,1.7800337E2,7.111231E2,3.7033596E0,-2.2966406E0,3.1008342E3,2.0283062E3,1.0033594E0,-3.3559464E2,4.8925433E2,-3.426622E2],"categories":[],"categories_nodes":[],"categories_segments":[],"categories_sizes":[],"default_left":[0,0,0,0,0,0,0,0,0,0,0,0,0,0,0,0,0,0,0,0,0,0,0,0,0,0,0,0,0,0,0,0,0,0,0,0,0,0,0,0,0,0,0,0,0,0,0,0,0,0,0,0,0,0,0,0,0,0,0,0,0,0,0,0,0,0,0,0,0,0,0,0,0,0,0,0,0,0,0,0,0,0,0,0,0,0,0,0,0,0,0,0,0,0,0,0,0,0,0,0,0,0,0,0,0,0,0,0,0,0,0,0,0,0,0,0,0,0,0,0,0,0,0,0,0,0,0,0,0,0,0,0,0,0,0,0,0,0,0,0,0,0,0,0,0,0,0,0,0,0,0,0,0,0,0,0,0,0,0,0,0,0,0,0,0,0,0,0,0,0,0,0,0,0,0,0,0,0,0,0,0,0,0,0,0,0,0,0,0],"id":3,"left_children":[1,3,5,7,9,11,13,15,17,19,21,23,25,27,29,31,33,35,37,39,41,-1,-1,43,45,47,49,-1,-1,51,-1,53,55,-1,57,59,61,63,65,67,69,71,73,75,77,79,81,83,85,87,-1,-1,-1,-1,-1,89,-1,91,-1,93,-1,95,97,99,-1,-1,-1,101,-1,103,105,107,109,111,113,115,117,119,121,123,125,127,-1,129,-1,131,-1,133,135,-1,-1,137,-1,139,141,143,145,-1,-1,147,-1,149,151,153,-1,155,157,-1,-1,159,161,163,165,167,169,171,-1,-1,-1,173,-1,175,-1,177,-1,179,-1,181,-1,-1,-1,-1,183,-1,-1,185,187,-1,-1,-1,-1,-1,-1,-1,-1,-1,-1,-1,-1,-1,-1,-1,-1,-1,-1,-1,-1,-1,-1,-1,-1,-1,-1,-1,-1,-1,-1,-1,-1,-1,-1,-1,-1,-1,-1,-1,-1,-1,-1,-1,-1,-1,-1,-1,-1,-1,-1,-1,-1],"loss_changes":[1.1126015E12,2.576046E11,2.479622E11,2.3555375E10,1.8439818E11,3.8812385E10,2.1168062E10,5.6874107E9,7.946461E9,5.235503E10,2.2339453E10,1.225121E10,4.309795E10,7.6671877E9,4.5573243E9,3.1320064E9,1.3939999E9,3.856814E9,6.095585E8,3.0033588E10,5.882315E9,0E0,0E0,1.1725472E10,1.07309005E9,1.0688397E10,1.0322936E9,0E0,0E0,2.3639327E9,0E0,9.195274E8,1.9513344E8,0E0,7.988347E8,1.0750771E9,8.470033E8,5.764833E8,4.825984E6,2.1610279E10,8.0248873E9,3.1498724E9,2.0617093E9,2.2755164E9,1.0538762E10,2.0296371E8,1.7748853E8,1.5934792E9,3.8989005E9,7.0294976E8,0E0,0E0,0E0,0E0,0E0,5.5640064E7,0E0,7.390822E7,0E0,8.844616E8,0E0,1.3863354E8,4.469901E7,4.6546944E7,0E0,0E0,0E0,1.5840329E10,0E0,4.630311E9,4.667687E9,6.844518E7,2.9072368E8,1.2098637E9,5.818634E8,7.976223E8,2.2928144E8,6.7178496E8,1.3435739E8,2.183568E7,8.641818E7,2.9156555E6,0E0,2.7956736E8,0E0,1.35236E9,0E0,6.995597E7,2.970337E8,0E0,0E0,2.0381696E7,0E0,4.7142707E8,3.7475942E8,2.0521928E7,2.7368512E7,0E0,0E0,5.244109E7,0E0,7.942827E9,4.0239337E9,3.3621606E9,0E0,3.0548485E9,3.0376653E8,0E0,0E0,2.1623228E7,2.9362688E7,5.3236736E7,1.8352192E7,1.552466E8,1.8669363E8,1.7679585E9,0E0,0E0,0E0,5.899469E8,0E0,1.2032928E7,0E0,2.5563904E7,0E0,1.60256E7,0E0,9.816772E3,0E0,0E0,0E0,0E0,1.7340826E8,0E0,0E0,2.6382464E7,3.85986E8,0E0,0E0,0E0,0E0,0E0,0E0,0E0,0E0,0E0,0E0,0E0,0E0,0E0,0E0,0E0,0E0,0E0,0E0,0E0,0E0,0E0,0E0,0E0,0E0,0E0,0E0,0E0,0E0,0E0,0E0,0E0,0E0,0E0,0E0,0E0,0E0,0E0,0E0,0E0,0E0,0E0,0E0,0E0,0E0,0E0,0E0,0E0,0E0,0E0,0E0,0E0,0E0],"parents":[2147483647,0,0,1,1,2,2,3,3,4,4,5,5,6,6,7,7,8,8,9,9,10,10,11,11,12,12,13,13,14,14,15,15,16,16,17,17,18,18,19,19,20,20,23,23,24,24,25,25,26,26,29,29,31,31,32,32,34,34,35,35,36,36,37,37,38,38,39,39,40,40,41,41,42,42,43,43,44,44,45,45,46,46,47,47,48,48,49,49,55,55,57,57,59,59,61,61,62,62,63,63,67,67,69,69,70,70,71,71,72,72,73,73,74,74,75,75,76,76,77,77,78,78,79,79,80,80,81,81,83,83,85,85,87,87,88,88,91,91,93,93,94,94,95,95,96,96,99,99,101,101,102,102,103,103,105,105,106,106,109,109,110,110,111,111,112,112,113,113,114,114,115,115,119,119,121,121,123,123,125,125,127,127,132,132,135,135,136,136],"right_children":[2,4,6,8,10,12,14,16,18,20,22,24,26,28,30,32,34,36,38,40,42,-1,-1,44,46,48,50,-1,-1,52,-1,54,56,-1,58,60,62,64,66,68,70,72,74,76,78,80,82,84,86,88,-1,-1,-1,-1,-1,90,-1,92,-1,94,-1,96,98,100,-1,-1,-1,102,-1,104,106,108,110,112,114,116,118,120,122,124,126,128,-1,130,-1,132,-1,134,136,-1,-1,138,-1,140,142,144,146,-1,-1,148,-1,150,152,154,-1,156,158,-1,-1,160,162,164,166,168,170,172,-1,-1,-1,174,-1,176,-1,178,-1,180,-1,182,-1,-1,-1,-1,184,-1,-1,186,188,-1,-1,-1,-1,-1,-1,-1,-1,-1,-1,-1,-1,-1,-1,-1,-1,-1,-1,-1,-1,-1,-1,-1,-1,-1,-1,-1,-1,-1,-1,-1,-1,-1,-1,-1,-1,-1,-1,-1,-1,-1,-1,-1,-1,-1,-1,-1,-1,-1,-1,-1,-1],"split_conditions":[8.9E1,6.6E1,3.73E2,5.45E1,1E0,1E0,8.333333E-1,6.666667E-1,1.5833334E0,1E0,8.3333336E-2,1E0,1E0,1.11E2,2E0,1.09E2,4.2E1,1E0,1E0,9.166667E-1,2.31E2,5.5580117E3,2.3550288E3,1E0,1.9E4,1E0,3.15E2,6.5323833E3,3.6092505E3,2.75E0,1.24003365E2,1E0,5.2E1,-2.0221866E3,6E0,1E0,1E0,1E0,1.21E4,1E0,1E0,4.1666666E-1,1E0,2.0833333E0,1.8333334E0,1E0,4.3E4,2.2E2,1E0,1.8333334E0,1.3444054E3,4.4339985E3,1.3453379E3,-1.2469648E3,-8.37214E2,3.3E1,-3.4099664E2,3E0,-8.714163E2,8.333333E-1,-1.3633585E3,8.3333336E-2,4.92E3,1.65E2,-9.190509E2,-6.3127466E2,-1.6729665E2,7.28E1,1.9671765E3,1E0,1E0,1E0,1.9166666E0,8.3333336E-2,6.666667E-1,1E0,6.5E3,1E0,3.8E4,1.0833334E0,1.1666666E0,2.4E4,-4.95145E2,1E0,2.503238E3,2.45E2,3.9149321E3,3.6E4,1E0,-1.1565029E3,-1.7088413E3,1E0,-4.3819666E2,1E0,1E0,1E0,1E0,3.100336E1,4.9787228E2,1.15E4,-1.1599714E3,1.65E2,1E0,8.3E1,5.9568604E2,1E0,5E2,6.9224475E2,2.5965506E2,7.9E3,1E0,1E0,1.6666666E0,1E0,1E0,1.85E2,1.769356E3,3.100336E1,-1.0519967E3,1E0,9.213378E2,1.764E4,2.7250336E2,1E0,3.100336E1,1E0,6.070336E1,1.9852E4,9.493781E1,1.791781E3,9.580505E2,3.280034E2,1.9E4,7.212395E2,9.1003365E1,1E0,1E0,-1.6898624E3,-4.7899667E2,-7.595139E2,-3.549871E2,-1.0168992E3,-4.2042282E2,-1.7899664E2,4.8885376E1,-4.026884E2,-1.3799496E2,-9.149278E2,-1.6046056E3,-6.868901E2,-2.9225819E1,3.116356E2,-1.6953388E1,-7.6848975E2,1.6887296E2,-2.9111517E2,3.0521417E2,-7.801332E2,-1.1909496E2,-4.842774E1,8.9849106E1,1.0033594E0,-3.353938E2,7.390664E2,1.0931139E3,2.038188E2,4.675034E2,1.5450734E3,1.0303491E3,8.331922E2,1.2733895E3,4.1766632E2,1.2388477E3,2.8953242E3,1.4088214E3,-6.1996643E1,-3.7649496E2,3.8103952E2,3.100336E1,1.7800337E2,7.111231E2,3.7033596E0,-2.2966406E0,3.1008342E3,2.0283062E3,1.0033594E0,-3.3559464E2,4.8925433E2,-3.426622E2],"split_indices":[4,4,3,4,62,35,5,5,5,40,5,47,95,4,0,3,4,179,39,5,3,0,0,179,1,179,3,0,0,5,0,42,4,0,2,55,28,65,1,151,179,5,179,5,5,179,1,3,54,5,0,0,0,0,0,4,0,5,0,5,0,5,1,3,0,0,0,4,0,117,137,38,5,5,5,180,1,40,1,5,5,1,0,15,0,3,0,1,19,0,0,39,0,65,75,10,22,0,0,1,0,3,181,4,0,102,3,0,0,1,11,25,5,12,28,3,0,0,0,50,0,1,0,171,0,6,0,1,0,0,0,0,1,0,0,8,12,0,0,0,0,0,0,0,0,0,0,0,0,0,0,0,0,0,0,0,0,0,0,0,0,0,0,0,0,0,0,0,0,0,0,0,0,0,0,0,0,0,0,0,0,0,0,0,0,0,0,0,0],"split_type":[0,0,0,0,0,0,0,0,0,0,0,0,0,0,0,0,0,0,0,0,0,0,0,0,0,0,0,0,0,0,0,0,0,0,0,0,0,0,0,0,0,0,0,0,0,0,0,0,0,0,0,0,0,0,0,0,0,0,0,0,0,0,0,0,0,0,0,0,0,0,0,0,0,0,0,0,0,0,0,0,0,0,0,0,0,0,0,0,0,0,0,0,0,0,0,0,0,0,0,0,0,0,0,0,0,0,0,0,0,0,0,0,0,0,0,0,0,0,0,0,0,0,0,0,0,0,0,0,0,0,0,0,0,0,0,0,0,0,0,0,0,0,0,0,0,0,0,0,0,0,0,0,0,0,0,0,0,0,0,0,0,0,0,0,0,0,0,0,0,0,0,0,0,0,0,0,0,0,0,0,0,0,0,0,0,0,0,0,0],"sum_hessian":[3.184E3,2.77E3,4.14E2,8.63E2,1.907E3,3.04E2,1.1E2,4.63E2,4E2,1.871E3,3.6E1,1.46E2,1.58E2,5.8E1,5.2E1,2.09E2,2.54E2,2.95E2,1.05E2,1.668E3,2.03E2,1.9E1,1.7E1,1.01E2,4.5E1,1.29E2,2.9E1,5E1,8E0,5.1E1,1E0,1.28E2,8.1E1,8.8E1,1.66E2,2.63E2,3.2E1,1E2,5E0,8.26E2,8.42E2,7.7E1,1.26E2,5.7E1,4.4E1,3.8E1,7E0,3.3E1,9.6E1,2.5E1,4E0,4.9E1,2E0,9E1,3.8E1,8E1,1E0,1.58E2,8E0,2.47E2,1.6E1,2.6E1,6E0,8.7E1,1.3E1,4E0,1E0,8.07E2,1.9E1,3.72E2,4.7E2,4.6E1,3.1E1,4.7E1,7.9E1,5.5E1,2E0,3.9E1,5E0,1.3E1,2.5E1,4E0,3E0,1.5E1,1.8E1,4.6E1,5E1,1.2E1,1.3E1,1E1,7E1,1.57E2,1E0,1.55E2,9.2E1,5E0,2.1E1,1E0,5E0,7E1,1.7E1,2.69E2,5.38E2,3.63E2,9E0,3.95E2,7.5E1,4.3E1,3E0,1.8E1,1.3E1,3.1E1,1.6E1,4.1E1,3.8E1,4.8E1,7E0,1E0,1E0,3.7E1,2E0,4E0,1E0,1.2E1,1E0,2.4E1,1E0,2E0,2E0,7E0,8E0,1E0,4.5E1,1.1E1,1E0,5E0,8E0,1.56E2,1E0,1.41E2,1.4E1,8.6E1,6E0,1E0,4E0,1.8E1,3E0,5E0,6.5E1,1.53E2,1.16E2,2.87E2,2.51E2,3.49E2,1.4E1,3.62E2,3.3E1,7.2E1,3E0,5E0,1.3E1,1E0,1.2E1,1.9E1,1.2E1,1.5E1,1E0,2.8E1,1.3E1,2.7E1,1.1E1,1.5E1,3.3E1,3.3E1,4E0,1E0,3E0,1.1E1,1E0,1E0,2.3E1,1E0,1E0,3.6E1,9E0,1E0,4E0,6E0,2E0],"tree_param":{"num_deleted":"0","num_feature":"182","num_nodes":"189","size_leaf_vector":"1"}},{"base_weights":[-5.88697E-5,-7.2319053E3,4.8288215E4,-2.155634E4,-7.415785E2,3.3374746E4,8.883164E4,-2.6430191E4,-1.5863015E4,-2.1229224E3,6.9167E4,2.1386441E4,4.4248367E4,1.0328666E5,7.106413E4,-2.229019E4,-2.9735957E4,-1.3121252E4,-2.3369605E4,-3.970274E3,1.30013545E4,5.5580117E3,2.3550288E3,2.7464137E4,7.444892E3,5.203201E4,9.044297E3,6.5323833E3,3.6092505E3,7.2351266E4,1.24003365E2,-1.8879217E4,-2.7384402E4,-2.0221866E3,-2.7443666E4,-1.437917E4,-2.6602954E3,-2.395045E4,-9.697129E3,3.1482928E2,-8.169337E3,6.005683E3,1.7195537E4,1.7504695E4,3.9690434E4,9.504639E3,-3.5269854E3,3.4567754E4,5.761709E4,6.126736E3,1.3444054E3,4.4339985E3,1.3453379E3,-1.2469648E3,-8.37214E2,-2.7582152E4,-3.4099664E2,-2.8002387E4,-8.714163E2,-1.3749258E4,-1.3633585E3,-5.133719E3,7.260096E3,-2.5051707E4,-9.190509E2,-6.3127466E2,-1.6729665E2,-4.8930896E2,1.9671765E3,-1.1639027E4,-5.404233E3,1.1169287E4,-1.7660374E3,1.1523582E4,2.0383766E4,1.8737598E4,-1.134437E4,4.510381E4,-3.0137957E3,5.591056E3,1.124639E4,9.587562E2,-4.95145E2,2.391323E4,2.503238E3,4.8109902E4,3.9149321E3,1.1329334E4,8.581278E2,-1.1565029E3,-1.7088413E3,-2.8087172E4,-4.3819666E2,-1.209143E4,-1.6382291E4,-3.1546225E2,-6.2144385E3,3.100336E1,4.9787228E2,-2.6148717E4,-1.1599714E3,-6.740771E3,2.6431292E3,-1.2199556E4,5.9568604E2,-4.0108386E3,-1.2593442E4,6.9224475E2,2.5965506E2,8.4852716E2,-5.1882295E3,1.50999E4,4.113831E3,2.3504768E4,1.6500023E4,1.6599824E4,1.769356E3,3.100336E1,-1.0519967E3,4.6265406E4,9.213378E2,-5.4332437E3,2.7250336E2,5.9416416E3,3.100336E1,1.1615308E4,6.070336E1,1.5630208E1,9.493781E1,1.791781E3,9.580505E2,3.280034E2,4.8918086E4,7.212395E2,9.1003365E1,-4.6554624E3,4.438507E3,-1.6898624E3,-4.7899667E2,-7.595139E2,-3.549871E2,-1.0168992E3,-4.2042282E2,-1.7899664E2,4.8885376E1,-4.026884E2,-1.3799496E2,-9.149278E2,-1.6046056E3,-6.868901E2,-2.9225819E1,3.116356E2,-1.6953388E1,-7.6848975E2,1.6887296E2,-2.9111517E2,3.0521417E2,-7.801332E2,-1.1909496E2,-4.842774E1,8.9849106E1,1.0033594E0,-3.353938E2,7.390664E2,1.0931139E3,2.038188E2,4.675034E2,1.5450734E3,1.0303491E3,8.331922E2,1.2733895E3,4.1766632E2,1.2388477E3,2.8953242E3,1.4088214E3,-6.1996643E1,-3.7649496E2,3.8103952E2,3.100336E1,1.7800337E2,7.111231E2,3.7033596E0,-2.2966406E0,3.1008342E3,2.0283062E3,1.0033594E0,-3.3559464E2,4.8925433E2,-3.426622E2],"categories":[],"categories_nodes":[],"categories_segments":[],"categories_sizes":[],"default_left":[0,0,0,0,0,0,0,0,0,0,0,0,0,0,0,0,0,0,0,0,0,0,0,0,0,0,0,0,0,0,0,0,0,0,0,0,0,0,0,0,0,0,0,0,0,0,0,0,0,0,0,0,0,0,0,0,0,0,0,0,0,0,0,0,0,0,0,0,0,0,0,0,0,0,0,0,0,0,0,0,0,0,0,0,0,0,0,0,0,0,0,0,0,0,0,0,0,0,0,0,0,0,0,0,0,0,0,0,0,0,0,0,0,0,0,0,0,0,0,0,0,0,0,0,0,0,0,0,0,0,0,0,0,0,0,0,0,0,0,0,0,0,0,0,0,0,0,0,0,0,0,0,0,0,0,0,0,0,0,0,0,0,0,0,0,0,0,0,0,0,0,0,0,0,0,0,0,0,0,0,0,0,0,0,0,0,0,0,0],"id":4,"left_children":[1,3,5,7,9,11,13,15,17,19,21,23,25,27,29,31,33,35,37,39,41,-1,-1,43,45,47,49,-1,-1,51,-1,53,55,-1,57,59,61,63,65,67,69,71,73,75,77,79,81,83,85,87,-1,-1,-1,-1,-1,89,-1,91,-1,93,-1,95,97,99,-1,-1,-1,101,-1,103,105,107,109,111,113,115,117,119,121,123,125,127,-1,129,-1,131,-1,133,135,-1,-1,137,-1,139,141,143,145,-1,-1,147,-1,149,151,153,-1,155,157,-1,-1,159,161,163,165,167,169,171,-1,-1,-1,173,-1,175,-1,177,-1,179,-1,181,-1,-1,-1,-1,183,-1,-1,185,187,-1,-1,-1,-1,-1,-1,-1,-1,-1,-1,-1,-1,-1,-1,-1,-1,-1,-1,-1,-1,-1,-1,-1,-1,-1,-1,-1,-1,-1,-1,-1,-1,-1,-1,-1,-1,-1,-1,-1,-1,-1,-1,-1,-1,-1,-1,-1,-1,-1,-1,-1,-1],"loss_changes":[1.1126015E12,2.576046E11,2.479622E11,2.3555375E10,1.8439818E11,3.8812385E10,2.1168062E10,5.6874107E9,7.946461E9,5.235503E10,2.2339453E10,1.225121E10,4.309795E10,7.6671877E9,4.5573243E9,3.1320064E9,1.3939999E9,3.856814E9,6.095585E8,3.0033588E10,5.882315E9,0E0,0E0,1.1725472E10,1.07309005E9,1.0688397E10,1.0322936E9,0E0,0E0,2.3639327E9,0E0,9.195274E8,1.9513344E8,0E0,7.988347E8,1.0750771E9,8.470033E8,5.764833E8,4.825984E6,2.1610279E10,8.0248873E9,3.1498724E9,2.0617093E9,2.2755164E9,1.0538762E10,2.0296371E8,1.7748853E8,1.5934792E9,3.8989005E9,7.0294976E8,0E0,0E0,0E0,0E0,0E0,5.5640064E7,0E0,7.390822E7,0E0,8.844616E8,0E0,1.3863354E8,4.469901E7,4.6546944E7,0E0,0E0,0E0,1.5840329E10,0E0,4.630311E9,4.667687E9,6.844518E7,2.9072368E8,1.2098637E9,5.818634E8,7.976223E8,2.2928144E8,6.7178496E8,1.3435739E8,2.183568E7,8.641818E7,2.9156555E6,0E0,2.7956736E8,0E0,1.35236E9,0E0,6.995597E7,2.970337E8,0E0,0E0,2.0381696E7,0E0,4.7142707E8,3.7475942E8,2.0521928E7,2.7368512E7,0E0,0E0,5.244109E7,0E0,7.942827E9,4.0239337E9,3.3621606E9,0E0,3.0548485E9,3.0376653E8,0E0,0E0,2.1623228E7,2.9362688E7,5.3236736E7,1.8352192E7,1.552466E8,1.8669363E8,1.7679585E9,0E0,0E0,0E0,5.899469E8,0E0,1.2032928E7,0E0,2.5563904E7,0E0,1.60256E7,0E0,9.816772E3,0E0,0E0,0E0,0E0,1.7340826E8,0E0,0E0,2.6382464E7,3.85986E8,0E0,0E0,0E0,0E0,0E0,0E0,0E0,0E0,0E0,0E0,0E0,0E0,0E0,0E0,0E0,0E0,0E0,0E0,0E0,0E0,0E0,0E0,0E0,0E0,0E0,0E0,0E0,0E0,0E0,0E0,0E0,0E0,0E0,0E0,0E0,0E0,0E0,0E0,0E0,0E0,0E0,0E0,0E0,0E0,0E0,0E0,0E0,0E0,0E0,0E0,0E0,0E0],"parents":[2147483647,0,0,1,1,2,2,3,3,4,4,5,5,6,6,7,7,8,8,9,9,10,10,11,11,12,12,13,13,14,14,15,15,16,16,17,17,18,18,19,19,20,20,23,23,24,24,25,25,26,26,29,29,31,31,32,32,34,34,35,35,36,36,37,37,38,38,39,39,40,40,41,41,42,42,43,43,44,44,45,45,46,46,47,47,48,48,49,49,55,55,57,57,59,59,61,61,62,62,63,63,67,67,69,69,70,70,71,71,72,72,73,73,74,74,75,75,76,76,77,77,78,78,79,79,80,80,81,81,83,83,85,85,87,87,88,88,91,91,93,93,94,94,95,95,96,96,99,99,101,101,102,102,103,103,105,105,106,106,109,109,110,110,111,111,112,112,113,113,114,114,115,115,119,119,121,121,123,123,125,125,127,127,132,132,135,135,136,136],"right_children":[2,4,6,8,10,12,14,16,18,20,22,24,26,28,30,32,34,36,38,40,42,-1,-1,44,46,48,50,-1,-1,52,-1,54,56,-1,58,60,62,64,66,68,70,72,74,76,78,80,82,84,86,88,-1,-1,-1,-1,-1,90,-1,92,-1,94,-1,96,98,100,-1,-1,-1,102,-1,104,106,108,110,112,114,116,118,120,122,124,126,128,-1,130,-1,132,-1,134,136,-1,-1,138,-1,140,142,144,146,-1,-1,148,-1,150,152,154,-1,156,158,-1,-1,160,162,164,166,168,170,172,-1,-1,-1,174,-1,176,-1,178,-1,180,-1,182,-1,-1,-1,-1,184,-1,-1,186,188,-1,-1,-1,-1,-1,-1,-1,-1,-1,-1,-1,-1,-1,-1,-1,-1,-1,-1,-1,-1,-1,-1,-1,-1,-1,-1,-1,-1,-1,-1,-1,-1,-1,-1,-1,-1,-1,-1,-1,-1,-1,-1,-1,-1,-1,-1,-1,-1,-1,-1,-1,-1],"split_conditions":[8.9E1,6.6E1,3.73E2,5.45E1,1E0,1E0,8.333333E-1,6.666667E-1,1.5833334E0,1E0,8.3333336E-2,1E0,1E0,1.11E2,2E0,1.09E2,4.2E1,1E0,1E0,9.166667E-1,2.31E2,5.5580117E3,2.3550288E3,1E0,1.9E4,1E0,3.15E2,6.5323833E3,3.6092505E3,2.75E0,1.24003365E2,1E0,5.2E1,-2.0221866E3,6E0,1E0,1E0,1E0,1.21E4,1E0,1E0,4.1666666E-1,1E0,2.0833333E0,1.8333334E0,1E0,4.3E4,2.2E2,1E0,1.8333334E0,1.3444054E3,4.4339985E3,1.3453379E3,-1.2469648E3,-8.37214E2,3.3E1,-3.4099664E2,3E0,-8.714163E2,8.333333E-1,-1.3633585E3,8.3333336E-2,4.92E3,1.65E2,-9.190509E2,-6.3127466E2,-1.6729665E2,7.28E1,1.9671765E3,1E0,1E0,1E0,1.9166666E0,8.3333336E-2,6.666667E-1,1E0,6.5E3,1E0,3.8E4,1.0833334E0,1.1666666E0,2.4E4,-4.95145E2,1E0,2.503238E3,2.45E2,3.9149321E3,3.6E4,1E0,-1.1565029E3,-1.7088413E3,1E0,-4.3819666E2,1E0,1E0,1E0,1E0,3.100336E1,4.9787228E2,1.15E4,-1.1599714E3,1.65E2,1E0,8.3E1,5.9568604E2,1E0,5E2,6.9224475E2,2.5965506E2,7.9E3,1E0,1E0,1.6666666E0,1E0,1E0,1.85E2,1.769356E3,3.100336E1,-1.0519967E3,1E0,9.213378E2,1.764E4,2.7250336E2,1E0,3.100336E1,1E0,6.070336E1,1.9852E4,9.493781E1,1.791781E3,9.580505E2,3.280034E2,1.9E4,7.212395E2,9.1003365E1,1E0,1E0,-1.6898624E3,-4.7899667E2,-7.595139E2,-3.549871E2,-1.0168992E3,-4.2042282E2,-1.7899664E2,4.8885376E1,-4.026884E2,-1.3799496E2,-9.149278E2,-1.6046056E3,-6.868901E2,-2.9225819E1,3.116356E2,-1.6953388E1,-7.6848975E2,1.6887296E2,-2.9111517E2,3.0521417E2,-7.801332E2,-1.1909496E2,-4.842774E1,8.9849106E1,1.0033594E0,-3.353938E2,7.390664E2,1.0931139E3,2.038188E2,4.675034E2,1.5450734E3,1.0303491E3,8.331922E2,1.2733895E3,4.1766632E2,1.2388477E3,2.8953242E3,1.4088214E3,-6.1996643E1,-3.7649496E2,3.8103952E2,3.100336E1,1.7800337E2,7.111231E2,3.7033596E0,-2.2966406E0,3.1008342E3,2.0283062E3,1.0033594E0,-3.3559464E2,4.8925433E2,-3.426622E2],"split_indices":[4,4,3,4,62,35,5,5,5,40,5,47,95,4,0,3,4,179,39,5,3,0,0,179,1,179,3,0,0,5,0,42,4,0,2,55,28,65,1,151,179,5,179,5,5,179,1,3,54,5,0,0,0,0,0,4,0,5,0,5,0,5,1,3,0,0,0,4,0,117,137,38,5,5,5,180,1,40,1,5,5,1,0,15,0,3,0,1,19,0,0,39,0,65,75,10,22,0,0,1,0,3,181,4,0,102,3,0,0,1,11,25,5,12,28,3,0,0,0,50,0,1,0,171,0,6,0,1,0,0,0,0,1,0,0,8,12,0,0,0,0,0,0,0,0,0,0,0,0,0,0,0,0,0,0,0,0,0,0,0,0,0,0,0,0,0,0,0,0,0,0,0,0,0,0,0,0,0,0,0,0,0,0,0,0,0,0,0,0],"split_type":[0,0,0,0,0,0,0,0,0,0,0,0,0,0,0,0,0,0,0,0,0,0,0,0,0,0,0,0,0,0,0,0,0,0,0,0,0,0,0,0,0,0,0,0,0,0,0,0,0,0,0,0,0,0,0,0,0,0,0,0,0,0,0,0,0,0,0,0,0,0,0,0,0,0,0,0,0,0,0,0,0,0,0,0,0,0,0,0,0,0,0,0,0,0,0,0,0,0,0,0,0,0,0,0,0,0,0,0,0,0,0,0,0,0,0,0,0,0,0,0,0,0,0,0,0,0,0,0,0,0,0,0,0,0,0,0,0,0,0,0,0,0,0,0,0,0,0,0,0,0,0,0,0,0,0,0,0,0,0,0,0,0,0,0,0,0,0,0,0,0,0,0,0,0,0,0,0,0,0,0,0,0,0,0,0,0,0,0,0],"sum_hessian":[3.184E3,2.77E3,4.14E2,8.63E2,1.907E3,3.04E2,1.1E2,4.63E2,4E2,1.871E3,3.6E1,1.46E2,1.58E2,5.8E1,5.2E1,2.09E2,2.54E2,2.95E2,1.05E2,1.668E3,2.03E2,1.9E1,1.7E1,1.01E2,4.5E1,1.29E2,2.9E1,5E1,8E0,5.1E1,1E0,1.28E2,8.1E1,8.8E1,1.66E2,2.63E2,3.2E1,1E2,5E0,8.26E2,8.42E2,7.7E1,1.26E2,5.7E1,4.4E1,3.8E1,7E0,3.3E1,9.6E1,2.5E1,4E0,4.9E1,2E0,9E1,3.8E1,8E1,1E0,1.58E2,8E0,2.47E2,1.6E1,2.6E1,6E0,8.7E1,1.3E1,4E0,1E0,8.07E2,1.9E1,3.72E2,4.7E2,4.6E1,3.1E1,4.7E1,7.9E1,5.5E1,2E0,3.9E1,5E0,1.3E1,2.5E1,4E0,3E0,1.5E1,1.8E1,4.6E1,5E1,1.2E1,1.3E1,1E1,7E1,1.57E2,1E0,1.55E2,9.2E1,5E0,2.1E1,1E0,5E0,7E1,1.7E1,2.69E2,5.38E2,3.63E2,9E0,3.95E2,7.5E1,4.3E1,3E0,1.8E1,1.3E1,3.1E1,1.6E1,4.1E1,3.8E1,4.8E1,7E0,1E0,1E0,3.7E1,2E0,4E0,1E0,1.2E1,1E0,2.4E1,1E0,2E0,2E0,7E0,8E0,1E0,4.5E1,1.1E1,1E0,5E0,8E0,1.56E2,1E0,1.41E2,1.4E1,8.6E1,6E0,1E0,4E0,1.8E1,3E0,5E0,6.5E1,1.53E2,1.16E2,2.87E2,2.51E2,3.49E2,1.4E1,3.62E2,3.3E1,7.2E1,3E0,5E0,1.3E1,1E0,1.2E1,1.9E1,1.2E1,1.5E1,1E0,2.8E1,1.3E1,2.7E1,1.1E1,1.5E1,3.3E1,3.3E1,4E0,1E0,3E0,1.1E1,1E0,1E0,2.3E1,1E0,1E0,3.6E1,9E0,1E0,4E0,6E0,2E0],"tree_param":{"num_deleted":"0","num_feature":"182","num_nodes":"189","size_leaf_vector":"1"}},{"base_weights":[5.850024E1,-5.069249E3,3.4296895E4,-1.5200012E4,-4.7135715E2,2.3773012E4,6.290489E4,-1.868433E4,-1.1287697E4,-1.4590424E3,4.9486223E4,1.5976764E4,3.284733E4,7.4135734E4,5.096452E4,-1.671766E4,-2.274563E4,-9.233661E3,-1.6604645E4,-2.7731917E3,9.293214E3,3.9739773E3,1.6877701E3,4.4827114E3,2.227271E4,3.9023547E4,6.748763E3,7.775885E4,2.587803E3,5.181186E4,1.0540278E2,-1.4731882E4,-1.9714072E4,-2.3224543E4,-6.9488007E2,-1.0068882E4,-1.7151827E3,-1.7423922E4,-1.0548787E4,-5.159159E2,-7.2746597E3,4.246216E3,1.231977E4,5.7919956E3,-1.1077814E4,1.7352264E4,3.0750572E4,3.7419236E3,3.5894863E4,-3.3540657E3,9.090859E3,1.5904613E3,4.7646553E3,5.365236E4,1.6519387E3,-1.2253491E4,-1.7107377E4,-1.1871917E3,-3.3058395E2,-1.6272136E3,-2.1755885E4,-9.519697E3,-1.0874143E3,-3.6555815E3,5.4598394E3,-1.7882547E4,-3.1901846E2,-6.5835596E2,-1.25748405E2,-3.6003381E3,3.07958E3,-1.0169154E4,-5.2970737E3,7.9197603E3,-1.2819968E3,1.0749256E4,1.8612006E4,1.4504378E4,4.653441E3,-7.783236E2,-1.0502496E2,1.3918799E4,1.8055153E3,3.9920438E2,1.8733215E3,4.1879242E4,2.8833523E4,2.3162778E2,-3.3414386E2,6.5233735E3,1.02174786E3,5.6080797E4,1.8225808E3,-3.7642563E2,-1.2720503E4,-1.752825E4,-7.9430566E3,-1.3106904E3,-3.7246735E2,-9.041332E3,-9.6242395E2,-3.2925455E2,-2.6824207E2,8.085032E1,4.1011633E2,-1.8790213E4,-8.5581934E2,-4.679736E3,1.1204137E4,2.2506272E3,2.3442184E4,-9.269842E3,-1.6165395E4,-5.9490938E3,2.6305876E3,6.736347E3,6.297996E2,7.732474E2,-3.6628235E3,1.240577E4,7.414332E3,2.3142475E4,1.2152998E4,1.067103E3,3.1772144E2,6.4153213E3,1.6017604E3,1.9797998E4,1.0458199E4,4.6597836E4,1.6091366E3,5.2176212E1,2.9386469E4,7.870874E3,-4.974707E2,3.5289312E3,3.2832953E4,-8.02571E2,-6.15445E2,-1.075892E3,-5.33624E2,-5.1538654E2,-1.4128395E2,-5.6467865E2,-2.2067989E2,-1.5214723E2,3.715256E1,-1.1345182E3,-3.1146188E2,-3.833031E2,-6.804957E1,7.740894E2,4.2054822E2,1.8465263E2,-3.6521567E2,1.445514E3,3.3292688E2,-4.786132E2,-7.1113983E2,-6.002861E2,-1.0877645E3,-2.7750986E2,-4.807763E2,-7.251302E1,2.4651689E2,6.094423E2,3.5803607E2,-3.6320316E1,8.1002235E1,-2.4578395E2,-3.3783283E1,5.9079504E2,8.722431E2,5.7045557E2,1.9777736E2,1.5078329E3,4.8832315E2,8.2009796E2,1.830597E2,4.7573563E2,2.3417432E2,-1.0320264E1,4.1744736E2,1.2512521E3,4.1168628E2,8.136453E2,3.2067834E2,1.068206E3,2.91017E3,1.803206E3,5.485128E2,5.548472E2,8.575641E1,-1.1352118E2,1.1058528E2,2.1096724E3,5.659034E2],"categories":[],"categories_nodes":[],"categories_segments":[],"categories_sizes":[],"default_left":[0,0,0,0,0,0,0,0,0,0,0,0,0,0,0,0,0,0,0,0,0,0,0,0,0,0,0,0,0,0,0,0,0,0,0,0,0,0,0,0,0,0,0,0,0,0,0,0,0,0,0,0,0,0,0,0,0,0,0,0,0,0,0,0,0,0,0,0,0,0,0,0,0,0,0,0,0,0,0,0,0,0,0,0,0,0,0,0,0,0,0,0,0,0,0,0,0,0,0,0,0,0,0,0,0,0,0,0,0,0,0,0,0,0,0,0,0,0,0,0,0,0,0,0,0,0,0,0,0,0,0,0,0,0,0,0,0,0,0,0,0,0,0,0,0,0,0,0,0,0,0,0,0,0,0,0,0,0,0,0,0,0,0,0,0,0,0,0,0,0,0,0,0,0,0,0,0,0,0,0,0,0,0,0,0,0,0,0,0,0,0,0,0,0,0,0,0],"id":5,"left_children":[1,3,5,7,9,11,13,15,17,19,21,23,25,27,29,31,33,35,37,39,41,-1,-1,43,45,47,49,51,-1,53,-1,55,57,59,-1,61,63,65,67,69,71,73,75,77,79,81,83,-1,85,87,89,-1,-1,91,-1,93,95,-1,-1,-1,97,99,-1,101,103,105,-1,-1,-1,107,109,111,113,115,117,119,121,123,125,-1,-1,127,-1,-1,-1,129,131,-1,-1,133,-1,135,-1,-1,137,139,141,-1,-1,143,-1,145,-1,-1,-1,147,-1,149,151,153,155,157,159,161,163,165,-1,167,169,171,173,175,177,-1,-1,179,181,183,185,187,-1,-1,189,191,193,-1,195,-1,-1,-1,-1,-1,-1,-1,-1,-1,-1,-1,-1,-1,-1,-1,-1,-1,-1,-1,-1,-1,-1,-1,-1,-1,-1,-1,-1,-1,-1,-1,-1,-1,-1,-1,-1,-1,-1,-1,-1,-1,-1,-1,-1,-1,-1,-1,-1,-1,-1,-1,-1,-1,-1,-1,-1,-1,-1,-1,-1],"loss_changes":[5.593513E11,1.2906642E11,1.2344744E11,1.1580572E10,9.416809E10,2.105262E10,1.1106845E10,3.2619233E9,4.3243684E9,2.6463134E10,1.1370144E10,1.1912905E10,2.2303293E10,2.824831E9,2.2856335E9,1.5600845E9,5.1164774E8,1.8540483E9,3.7683814E8,1.6944886E10,3.0637937E9,0E0,0E0,1.2865517E9,3.929899E9,6.0137144E9,6.9302144E8,1.9591332E9,0E0,1.02527795E9,0E0,9.148703E8,1.5511552E7,2.0525875E8,0E0,1.0129715E9,4.5155344E8,4.490711E8,3.43232E7,1.2343199E10,3.134464E9,1.5941876E9,1.0549535E9,4.879982E8,6.5635456E7,2.6430382E9,2.2397338E8,0E0,3.102761E9,1.1738018E8,3.57685E8,0E0,0E0,1.179222E9,0E0,1.9107738E8,2.2718669E8,0E0,0E0,0E0,1.099776E7,6.441513E8,0E0,6.631184E7,3.0383104E7,4.0749056E7,0E0,0E0,0E0,9.6244E9,8.623374E9,1.06346086E9,1.7369242E9,7.261901E7,1.5941402E8,4.825518E8,4.2104576E8,8.709235E7,2.6393574E8,0E0,0E0,9.526446E8,0E0,0E0,0E0,2.516656E9,7.4756915E8,0E0,0E0,1.8366669E8,0E0,9.2984115E8,0E0,0E0,6.529024E6,1.539154E8,1.457824E6,0E0,0E0,4.376535E8,0E0,1.4127083E7,0E0,0E0,0E0,1.7799168E7,0E0,3.3792573E9,2.0150835E8,3.4314908E9,9.883341E7,5.6658534E8,1.5740723E8,8.045128E8,1.5249856E8,3.1474688E7,0E0,1.5130006E7,1.7853264E7,2.278103E8,2.8760538E8,1.8324122E8,1.2380531E8,0E0,0E0,9.074394E7,1.9119158E8,1.3018317E8,5.3039693E8,1.2757565E9,0E0,0E0,3.868713E8,1.2866086E8,1.6543252E7,0E0,4.975667E7,0E0,0E0,0E0,0E0,0E0,0E0,0E0,0E0,0E0,0E0,0E0,0E0,0E0,0E0,0E0,0E0,0E0,0E0,0E0,0E0,0E0,0E0,0E0,0E0,0E0,0E0,0E0,0E0,0E0,0E0,0E0,0E0,0E0,0E0,0E0,0E0,0E0,0E0,0E0,0E0,0E0,0E0,0E0,0E0,0E0,0E0,0E0,0E0,0E0,0E0,0E0,0E0,0E0,0E0,0E0,0E0,0E0,0E0,0E0,0E0],"parents":[2147483647,0,0,1,1,2,2,3,3,4,4,5,5,6,6,7,7,8,8,9,9,10,10,11,11,12,12,13,13,14,14,15,15,16,16,17,17,18,18,19,19,20,20,23,23,24,24,25,25,26,26,27,27,29,29,31,31,32,32,33,33,35,35,36,36,37,37,38,38,39,39,40,40,41,41,42,42,43,43,44,44,45,45,46,46,48,48,49,49,50,50,53,53,55,55,56,56,60,60,61,61,63,63,64,64,65,65,69,69,70,70,71,71,72,72,73,73,74,74,75,75,76,76,77,77,78,78,81,81,85,85,86,86,89,89,91,91,94,94,95,95,96,96,99,99,101,101,105,105,107,107,108,108,109,109,110,110,111,111,112,112,113,113,114,114,115,115,117,117,118,118,119,119,120,120,121,121,122,122,125,125,126,126,127,127,128,128,129,129,132,132,133,133,134,134,136,136],"right_children":[2,4,6,8,10,12,14,16,18,20,22,24,26,28,30,32,34,36,38,40,42,-1,-1,44,46,48,50,52,-1,54,-1,56,58,60,-1,62,64,66,68,70,72,74,76,78,80,82,84,-1,86,88,90,-1,-1,92,-1,94,96,-1,-1,-1,98,100,-1,102,104,106,-1,-1,-1,108,110,112,114,116,118,120,122,124,126,-1,-1,128,-1,-1,-1,130,132,-1,-1,134,-1,136,-1,-1,138,140,142,-1,-1,144,-1,146,-1,-1,-1,148,-1,150,152,154,156,158,160,162,164,166,-1,168,170,172,174,176,178,-1,-1,180,182,184,186,188,-1,-1,190,192,194,-1,196,-1,-1,-1,-1,-1,-1,-1,-1,-1,-1,-1,-1,-1,-1,-1,-1,-1,-1,-1,-1,-1,-1,-1,-1,-1,-1,-1,-1,-1,-1,-1,-1,-1,-1,-1,-1,-1,-1,-1,-1,-1,-1,-1,-1,-1,-1,-1,-1,-1,-1,-1,-1,-1,-1,-1,-1,-1,-1,-1,-1],"split_conditions":[8.9E1,6.65E1,3.73E2,5.4E1,1E0,2.65E2,3.3333334E-1,1.4166666E0,1.9E4,1E0,8.3333336E-2,1E0,1E0,1.11E2,2E0,1.01E2,1E0,1E0,1E0,1.0833334E0,2.31E2,3.9739773E3,1.6877701E3,4.9E4,1E0,2.82E2,1E0,1E0,2.587803E3,2.4166667E0,1.0540278E2,3.3333334E-1,6E0,8.2E1,-6.9488007E2,1E0,1E0,1E0,2E0,1.73E2,1.68E2,4.1666666E-1,1E0,6E3,1.36E2,2.16E2,1E1,3.7419236E3,8.3333336E-2,1E0,3.15E2,1.5904613E3,4.7646553E3,1.11E2,1.6519387E3,6E1,6E0,-1.1871917E3,-3.3058395E2,-1.6272136E3,3E0,1E0,-1.0874143E3,8.3333336E-2,1.65E2,1.65E2,-3.1901846E2,-6.5835596E2,-1.25748405E2,1E0,1E0,1E0,1E0,2.02E2,1.8333334E0,8.333333E-1,1E0,1E0,6.666667E-1,-7.783236E2,-1.0502496E2,8.333333E-1,1.8055153E3,3.9920438E2,1.8733215E3,9.5E1,2.99E2,2.3162778E2,-3.3414386E2,2.75E0,1.02174786E3,1E0,1.8225808E3,-3.7642563E2,1E0,1E0,1.5E3,-1.3106904E3,-3.7246735E2,1E0,-9.6242395E2,1E0,-2.6824207E2,8.085032E1,4.1011633E2,1E0,-8.5581934E2,7.74E1,2.5E-1,1E0,1E0,1E0,1.1666666E0,3.3E4,1E0,2.5E3,6.297996E2,7.9E3,1E0,1E0,1E0,1E0,1.0833334E0,1.067103E3,3.1772144E2,1E0,1E0,1E0,1E0,1E0,1.6091366E3,5.2176212E1,3.58E2,1E0,1E0,3.5289312E3,1E0,-8.02571E2,-6.15445E2,-1.075892E3,-5.33624E2,-5.1538654E2,-1.4128395E2,-5.6467865E2,-2.2067989E2,-1.5214723E2,3.715256E1,-1.1345182E3,-3.1146188E2,-3.833031E2,-6.804957E1,7.740894E2,4.2054822E2,1.8465263E2,-3.6521567E2,1.445514E3,3.3292688E2,-4.786132E2,-7.1113983E2,-6.002861E2,-1.0877645E3,-2.7750986E2,-4.807763E2,-7.251302E1,2.4651689E2,6.094423E2,3.5803607E2,-3.6320316E1,8.1002235E1,-2.4578395E2,-3.3783283E1,5.9079504E2,8.722431E2,5.7045557E2,1.9777736E2,1.5078329E3,4.8832315E2,8.2009796E2,1.830597E2,4.7573563E2,2.3417432E2,-1.0320264E1,4.1744736E2,1.2512521E3,4.1168628E2,8.136453E2,3.2067834E2,1.068206E3,2.91017E3,1.803206E3,5.485128E2,5.548472E2,8.575641E1,-1.1352118E2,1.1058528E2,2.1096724E3,5.659034E2],"split_indices":[4,4,3,4,62,3,5,5,1,40,5,54,95,4,0,3,119,179,65,5,3,0,0,1,179,3,15,179,0,5,0,5,2,3,0,130,28,68,0,3,3,5,28,1,3,3,1,0,5,6,3,0,0,4,0,3,2,0,0,0,5,55,0,5,3,3,0,0,0,117,151,147,102,3,5,5,14,9,5,0,0,5,0,0,0,4,3,0,0,5,0,177,0,0,42,90,1,0,0,68,0,10,0,0,0,39,0,4,5,67,22,69,5,1,10,1,0,1,169,179,114,22,5,0,0,181,27,24,12,179,0,0,3,31,24,0,24,0,0,0,0,0,0,0,0,0,0,0,0,0,0,0,0,0,0,0,0,0,0,0,0,0,0,0,0,0,0,0,0,0,0,0,0,0,0,0,0,0,0,0,0,0,0,0,0,0,0,0,0,0,0,0,0,0,0,0,0],"split_type":[0,0,0,0,0,0,0,0,0,0,0,0,0,0,0,0,0,0,0,0,0,0,0,0,0,0,0,0,0,0,0,0,0,0,0,0,0,0,0,0,0,0,0,0,0,0,0,0,0,0,0,0,0,0,0,0,0,0,0,0,0,0,0,0,0,0,0,0,0,0,0,0,0,0,0,0,0,0,0,0,0,0,0,0,0,0,0,0,0,0,0,0,0,0,0,0,0,0,0,0,0,0,0,0,0,0,0,0,0,0,0,0,0,0,0,0,0,0,0,0,0,0,0,0,0,0,0,0,0,0,0,0,0,0,0,0,0,0,0,0,0,0,0,0,0,0,0,0,0,0,0,0,0,0,0,0,0,0,0,0,0,0,0,0,0,0,0,0,0,0,0,0,0,0,0,0,0,0,0,0,0,0,0,0,0,0,0,0,0,0,0,0,0,0,0,0,0],"sum_hessian":[3.184E3,2.77E3,4.14E2,8.64E2,1.906E3,3.04E2,1.1E2,4.55E2,4.09E2,1.87E3,3.6E1,1.65E2,1.39E2,5.4E1,5.6E1,3.1E2,1.45E2,2.97E2,1.12E2,1.667E3,2.03E2,1.9E1,1.7E1,5.9E1,1.06E2,1.12E2,2.7E1,4.7E1,7E0,5.5E1,1E0,1.9E2,1.2E2,1.38E2,7E0,2.67E2,3E1,9.7E1,1.5E1,1.111E3,5.56E2,7.7E1,1.26E2,5.5E1,4E0,6.9E1,3.7E1,1.1E1,1.01E2,5E0,2.2E1,2E0,4.5E1,5E1,5E0,9.6E1,9.4E1,1.19E2,1E0,3.3E1,1.05E2,2.52E2,1.5E1,2.4E1,6E0,9.3E1,4E0,1.4E1,1E0,5.98E2,5.13E2,2.24E2,3.32E2,4.6E1,3.1E1,1.03E2,2.3E1,5E0,5E1,3E0,1E0,5.6E1,1.3E1,1E0,3.6E1,5.2E1,4.9E1,1E0,4E0,1.8E1,4E0,4.4E1,6E0,8E0,8.8E1,8.9E1,5E0,1.04E2,1E0,2.37E2,1.5E1,5E0,1.9E1,2E0,4E0,7.1E1,2.2E1,5.58E2,4E1,4.94E2,1.9E1,1.97E2,2.7E1,3.07E2,2.5E1,3.4E1,1.2E1,1.7E1,1.4E1,6.7E1,3.6E1,1.2E1,1.1E1,3E0,2E0,3.1E1,1.9E1,1.9E1,3.7E1,3.8E1,1.4E1,1E0,4.8E1,1.5E1,3E0,3.8E1,6E0,6.6E1,2.2E1,8.4E1,5E0,4E0,1E0,2.21E2,1.6E1,1E0,4E0,7E1,1E0,3.76E2,1.82E2,2.7E1,1.3E1,4.5E2,4.4E1,1.8E1,1E0,1.34E2,6.3E1,8E0,1.9E1,1.89E2,1.18E2,7E0,1.8E1,4E0,3E1,5E0,1.2E1,1.2E1,2E0,3.3E1,3.4E1,2.3E1,1.3E1,1E1,2E0,9E0,2E0,1.8E1,1.3E1,1.5E1,4E0,1.7E1,2E0,2.2E1,1.5E1,3E0,3.5E1,4.6E1,2E0,1.2E1,3E0,2E0,1E0,5E0,1E0],"tree_param":{"num_deleted":"0","num_feature":"182","num_nodes":"197","size_leaf_vector":"1"}},{"base_weights":[5.850024E1,-5.069249E3,3.4296895E4,-1.5200012E4,-4.7135715E2,2.3773012E4,6.290489E4,-1.868433E4,-1.1287697E4,-1.4590424E3,4.9486223E4,1.5976764E4,3.284733E4,7.4135734E4,5.096452E4,-1.671766E4,-2.274563E4,-9.233661E3,-1.6604645E4,-2.7731917E3,9.293214E3,3.9739773E3,1.6877701E3,4.4827114E3,2.227271E4,3.9023547E4,6.748763E3,7.775885E4,2.587803E3,5.181186E4,1.0540278E2,-1.4731882E4,-1.9714072E4,-2.3224543E4,-6.9488007E2,-1.0068882E4,-1.7151827E3,-1.7423922E4,-1.0548787E4,-5.159159E2,-7.2746597E3,4.246216E3,1.231977E4,5.7919956E3,-1.1077814E4,1.7352264E4,3.0750572E4,3.7419236E3,3.5894863E4,-3.3540657E3,9.090859E3,1.5904613E3,4.7646553E3,5.365236E4,1.6519387E3,-1.2253491E4,-1.7107377E4,-1.1871917E3,-3.3058395E2,-1.6272136E3,-2.1755885E4,-9.519697E3,-1.0874143E3,-3.6555815E3,5.4598394E3,-1.7882547E4,-3.1901846E2,-6.5835596E2,-1.25748405E2,-3.6003381E3,3.07958E3,-1.0169154E4,-5.2970737E3,7.9197603E3,-1.2819968E3,1.0749256E4,1.8612006E4,1.4504378E4,4.653441E3,-7.783236E2,-1.0502496E2,1.3918799E4,1.8055153E3,3.9920438E2,1.8733215E3,4.1879242E4,2.8833523E4,2.3162778E2,-3.3414386E2,6.5233735E3,1.02174786E3,5.6080797E4,1.8225808E3,-3.7642563E2,-1.2720503E4,-1.752825E4,-7.9430566E3,-1.3106904E3,-3.7246735E2,-9.041332E3,-9.6242395E2,-3.2925455E2,-2.6824207E2,8.085032E1,4.1011633E2,-1.8790213E4,-8.5581934E2,-4.679736E3,1.1204137E4,2.2506272E3,2.3442184E4,-9.269842E3,-1.6165395E4,-5.9490938E3,2.6305876E3,6.736347E3,6.297996E2,7.732474E2,-3.6628235E3,1.240577E4,7.414332E3,2.3142475E4,1.2152998E4,1.067103E3,3.1772144E2,6.4153213E3,1.6017604E3,1.9797998E4,1.0458199E4,4.6597836E4,1.6091366E3,5.2176212E1,2.9386469E4,7.870874E3,-4.974707E2,3.5289312E3,3.2832953E4,-8.02571E2,-6.15445E2,-1.075892E3,-5.33624E2,-5.1538654E2,-1.4128395E2,-5.6467865E2,-2.2067989E2,-1.5214723E2,3.715256E1,-1.1345182E3,-3.1146188E2,-3.833031E2,-6.804957E1,7.740894E2,4.2054822E2,1.8465263E2,-3.6521567E2,1.445514E3,3.3292688E2,-4.786132E2,-7.1113983E2,-6.002861E2,-1.0877645E3,-2.7750986E2,-4.807763E2,-7.251302E1,2.4651689E2,6.094423E2,3.5803607E2,-3.6320316E1,8.1002235E1,-2.4578395E2,-3.3783283E1,5.9079504E2,8.722431E2,5.7045557E2,1.9777736E2,1.5078329E3,4.8832315E2,8.2009796E2,1.830597E2,4.7573563E2,2.3417432E2,-1.0320264E1,4.1744736E2,1.2512521E3,4.1168628E2,8.136453E2,3.2067834E2,1.068206E3,2.91017E3,1.803206E3,5.485128E2,5.548472E2,8.575641E1,-1.1352118E2,1.1058528E2,2.1096724E3,5.659034E2],"categories":[],"categories_nodes":[],"categories_segments":[],"categories_sizes":[],"default_left":[0,0,0,0,0,0,0,0,0,0,0,0,0,0,0,0,0,0,0,0,0,0,0,0,0,0,0,0,0,0,0,0,0,0,0,0,0,0,0,0,0,0,0,0,0,0,0,0,0,0,0,0,0,0,0,0,0,0,0,0,0,0,0,0,0,0,0,0,0,0,0,0,0,0,0,0,0,0,0,0,0,0,0,0,0,0,0,0,0,0,0,0,0,0,0,0,0,0,0,0,0,0,0,0,0,0,0,0,0,0,0,0,0,0,0,0,0,0,0,0,0,0,0,0,0,0,0,0,0,0,0,0,0,0,0,0,0,0,0,0,0,0,0,0,0,0,0,0,0,0,0,0,0,0,0,0,0,0,0,0,0,0,0,0,0,0,0,0,0,0,0,0,0,0,0,0,0,0,0,0,0,0,0,0,0,0,0,0,0,0,0,0,0,0,0,0,0],"id":6,"left_children":[1,3,5,7,9,11,13,15,17,19,21,23,25,27,29,31,33,35,37,39,41,-1,-1,43,45,47,49,51,-1,53,-1,55,57,59,-1,61,63,65,67,69,71,73,75,77,79,81,83,-1,85,87,89,-1,-1,91,-1,93,95,-1,-1,-1,97,99,-1,101,103,105,-1,-1,-1,107,109,111,113,115,117,119,121,123,125,-1,-1,127,-1,-1,-1,129,131,-1,-1,133,-1,135,-1,-1,137,139,141,-1,-1,143,-1,145,-1,-1,-1,147,-1,149,151,153,155,157,159,161,163,165,-1,167,169,171,173,175,177,-1,-1,179,181,183,185,187,-1,-1,189,191,193,-1,195,-1,-1,-1,-1,-1,-1,-1,-1,-1,-1,-1,-1,-1,-1,-1,-1,-1,-1,-1,-1,-1,-1,-1,-1,-1,-1,-1,-1,-1,-1,-1,-1,-1,-1,-1,-1,-1,-1,-1,-1,-1,-1,-1,-1,-1,-1,-1,-1,-1,-1,-1,-1,-1,-1,-1,-1,-1,-1,-1,-1],"loss_changes":[5.593513E11,1.2906642E11,1.2344744E11,1.1580572E10,9.416809E10,2.105262E10,1.1106845E10,3.2619233E9,4.3243684E9,2.6463134E10,1.1370144E10,1.1912905E10,2.2303293E10,2.824831E9,2.2856335E9,1.5600845E9,5.1164774E8,1.8540483E9,3.7683814E8,1.6944886E10,3.0637937E9,0E0,0E0,1.2865517E9,3.929899E9,6.0137144E9,6.9302144E8,1.9591332E9,0E0,1.02527795E9,0E0,9.148703E8,1.5511552E7,2.0525875E8,0E0,1.0129715E9,4.5155344E8,4.490711E8,3.43232E7,1.2343199E10,3.134464E9,1.5941876E9,1.0549535E9,4.879982E8,6.5635456E7,2.6430382E9,2.2397338E8,0E0,3.102761E9,1.1738018E8,3.57685E8,0E0,0E0,1.179222E9,0E0,1.9107738E8,2.2718669E8,0E0,0E0,0E0,1.099776E7,6.441513E8,0E0,6.631184E7,3.0383104E7,4.0749056E7,0E0,0E0,0E0,9.6244E9,8.623374E9,1.06346086E9,1.7369242E9,7.261901E7,1.5941402E8,4.825518E8,4.2104576E8,8.709235E7,2.6393574E8,0E0,0E0,9.526446E8,0E0,0E0,0E0,2.516656E9,7.4756915E8,0E0,0E0,1.8366669E8,0E0,9.2984115E8,0E0,0E0,6.529024E6,1.539154E8,1.457824E6,0E0,0E0,4.376535E8,0E0,1.4127083E7,0E0,0E0,0E0,1.7799168E7,0E0,3.3792573E9,2.0150835E8,3.4314908E9,9.883341E7,5.6658534E8,1.5740723E8,8.045128E8,1.5249856E8,3.1474688E7,0E0,1.5130006E7,1.7853264E7,2.278103E8,2.8760538E8,1.8324122E8,1.2380531E8,0E0,0E0,9.074394E7,1.9119158E8,1.3018317E8,5.3039693E8,1.2757565E9,0E0,0E0,3.868713E8,1.2866086E8,1.6543252E7,0E0,4.975667E7,0E0,0E0,0E0,0E0,0E0,0E0,0E0,0E0,0E0,0E0,0E0,0E0,0E0,0E0,0E0,0E0,0E0,0E0,0E0,0E0,0E0,0E0,0E0,0E0,0E0,0E0,0E0,0E0,0E0,0E0,0E0,0E0,0E0,0E0,0E0,0E0,0E0,0E0,0E0,0E0,0E0,0E0,0E0,0E0,0E0,0E0,0E0,0E0,0E0,0E0,0E0,0E0,0E0,0E0,0E0,0E0,0E0,0E0,0E0,0E0],"parents":[2147483647,0,0,1,1,2,2,3,3,4,4,5,5,6,6,7,7,8,8,9,9,10,10,11,11,12,12,13,13,14,14,15,15,16,16,17,17,18,18,19,19,20,20,23,23,24,24,25,25,26,26,27,27,29,29,31,31,32,32,33,33,35,35,36,36,37,37,38,38,39,39,40,40,41,41,42,42,43,43,44,44,45,45,46,46,48,48,49,49,50,50,53,53,55,55,56,56,60,60,61,61,63,63,64,64,65,65,69,69,70,70,71,71,72,72,73,73,74,74,75,75,76,76,77,77,78,78,81,81,85,85,86,86,89,89,91,91,94,94,95,95,96,96,99,99,101,101,105,105,107,107,108,108,109,109,110,110,111,111,112,112,113,113,114,114,115,115,117,117,118,118,119,119,120,120,121,121,122,122,125,125,126,126,127,127,128,128,129,129,132,132,133,133,134,134,136,136],"right_children":[2,4,6,8,10,12,14,16,18,20,22,24,26,28,30,32,34,36,38,40,42,-1,-1,44,46,48,50,52,-1,54,-1,56,58,60,-1,62,64,66,68,70,72,74,76,78,80,82,84,-1,86,88,90,-1,-1,92,-1,94,96,-1,-1,-1,98,100,-1,102,104,106,-1,-1,-1,108,110,112,114,116,118,120,122,124,126,-1,-1,128,-1,-1,-1,130,132,-1,-1,134,-1,136,-1,-1,138,140,142,-1,-1,144,-1,146,-1,-1,-1,148,-1,150,152,154,156,158,160,162,164,166,-1,168,170,172,174,176,178,-1,-1,180,182,184,186,188,-1,-1,190,192,194,-1,196,-1,-1,-1,-1,-1,-1,-1,-1,-1,-1,-1,-1,-1,-1,-1,-1,-1,-1,-1,-1,-1,-1,-1,-1,-1,-1,-1,-1,-1,-1,-1,-1,-1,-1,-1,-1,-1,-1,-1,-1,-1,-1,-1,-1,-1,-1,-1,-1,-1,-1,-1,-1,-1,-1,-1,-1,-1,-1,-1,-1],"split_conditions":[8.9E1,6.65E1,3.73E2,5.4E1,1E0,2.65E2,3.3333334E-1,1.4166666E0,1.9E4,1E0,8.3333336E-2,1E0,1E0,1.11E2,2E0,1.01E2,1E0,1E0,1E0,1.0833334E0,2.31E2,3.9739773E3,1.6877701E3,4.9E4,1E0,2.82E2,1E0,1E0,2.587803E3,2.4166667E0,1.0540278E2,3.3333334E-1,6E0,8.2E1,-6.9488007E2,1E0,1E0,1E0,2E0,1.73E2,1.68E2,4.1666666E-1,1E0,6E3,1.36E2,2.16E2,1E1,3.7419236E3,8.3333336E-2,1E0,3.15E2,1.5904613E3,4.7646553E3,1.11E2,1.6519387E3,6E1,6E0,-1.1871917E3,-3.3058395E2,-1.6272136E3,3E0,1E0,-1.0874143E3,8.3333336E-2,1.65E2,1.65E2,-3.1901846E2,-6.5835596E2,-1.25748405E2,1E0,1E0,1E0,1E0,2.02E2,1.8333334E0,8.333333E-1,1E0,1E0,6.666667E-1,-7.783236E2,-1.0502496E2,8.333333E-1,1.8055153E3,3.9920438E2,1.8733215E3,9.5E1,2.99E2,2.3162778E2,-3.3414386E2,2.75E0,1.02174786E3,1E0,1.8225808E3,-3.7642563E2,1E0,1E0,1.5E3,-1.3106904E3,-3.7246735E2,1E0,-9.6242395E2,1E0,-2.6824207E2,8.085032E1,4.1011633E2,1E0,-8.5581934E2,7.74E1,2.5E-1,1E0,1E0,1E0,1.1666666E0,3.3E4,1E0,2.5E3,6.297996E2,7.9E3,1E0,1E0,1E0,1E0,1.0833334E0,1.067103E3,3.1772144E2,1E0,1E0,1E0,1E0,1E0,1.6091366E3,5.2176212E1,3.58E2,1E0,1E0,3.5289312E3,1E0,-8.02571E2,-6.15445E2,-1.075892E3,-5.33624E2,-5.1538654E2,-1.4128395E2,-5.6467865E2,-2.2067989E2,-1.5214723E2,3.715256E1,-1.1345182E3,-3.1146188E2,-3.833031E2,-6.804957E1,7.740894E2,4.2054822E2,1.8465263E2,-3.6521567E2,1.445514E3,3.3292688E2,-4.786132E2,-7.1113983E2,-6.002861E2,-1.0877645E3,-2.7750986E2,-4.807763E2,-7.251302E1,2.4651689E2,6.094423E2,3.5803607E2,-3.6320316E1,8.1002235E1,-2.4578395E2,-3.3783283E1,5.9079504E2,8.722431E2,5.7045557E2,1.9777736E2,1.5078329E3,4.8832315E2,8.2009796E2,1.830597E2,4.7573563E2,2.3417432E2,-1.0320264E1,4.1744736E2,1.2512521E3,4.1168628E2,8.136453E2,3.2067834E2,1.068206E3,2.91017E3,1.803206E3,5.485128E2,5.548472E2,8.575641E1,-1.1352118E2,1.1058528E2,2.1096724E3,5.659034E2],"split_indices":[4,4,3,4,62,3,5,5,1,40,5,54,95,4,0,3,119,179,65,5,3,0,0,1,179,3,15,179,0,5,0,5,2,3,0,130,28,68,0,3,3,5,28,1,3,3,1,0,5,6,3,0,0,4,0,3,2,0,0,0,5,55,0,5,3,3,0,0,0,117,151,147,102,3,5,5,14,9,5,0,0,5,0,0,0,4,3,0,0,5,0,177,0,0,42,90,1,0,0,68,0,10,0,0,0,39,0,4,5,67,22,69,5,1,10,1,0,1,169,179,114,22,5,0,0,181,27,24,12,179,0,0,3,31,24,0,24,0,0,0,0,0,0,0,0,0,0,0,0,0,0,0,0,0,0,0,0,0,0,0,0,0,0,0,0,0,0,0,0,0,0,0,0,0,0,0,0,0,0,0,0,0,0,0,0,0,0,0,0,0,0,0,0,0,0,0,0],"split_type":[0,0,0,0,0,0,0,0,0,0,0,0,0,0,0,0,0,0,0,0,0,0,0,0,0,0,0,0,0,0,0,0,0,0,0,0,0,0,0,0,0,0,0,0,0,0,0,0,0,0,0,0,0,0,0,0,0,0,0,0,0,0,0,0,0,0,0,0,0,0,0,0,0,0,0,0,0,0,0,0,0,0,0,0,0,0,0,0,0,0,0,0,0,0,0,0,0,0,0,0,0,0,0,0,0,0,0,0,0,0,0,0,0,0,0,0,0,0,0,0,0,0,0,0,0,0,0,0,0,0,0,0,0,0,0,0,0,0,0,0,0,0,0,0,0,0,0,0,0,0,0,0,0,0,0,0,0,0,0,0,0,0,0,0,0,0,0,0,0,0,0,0,0,0,0,0,0,0,0,0,0,0,0,0,0,0,0,0,0,0,0,0,0,0,0,0,0],"sum_hessian":[3.184E3,2.77E3,4.14E2,8.64E2,1.906E3,3.04E2,1.1E2,4.55E2,4.09E2,1.87E3,3.6E1,1.65E2,1.39E2,5.4E1,5.6E1,3.1E2,1.45E2,2.97E2,1.12E2,1.667E3,2.03E2,1.9E1,1.7E1,5.9E1,1.06E2,1.12E2,2.7E1,4.7E1,7E0,5.5E1,1E0,1.9E2,1.2E2,1.38E2,7E0,2.67E2,3E1,9.7E1,1.5E1,1.111E3,5.56E2,7.7E1,1.26E2,5.5E1,4E0,6.9E1,3.7E1,1.1E1,1.01E2,5E0,2.2E1,2E0,4.5E1,5E1,5E0,9.6E1,9.4E1,1.19E2,1E0,3.3E1,1.05E2,2.52E2,1.5E1,2.4E1,6E0,9.3E1,4E0,1.4E1,1E0,5.98E2,5.13E2,2.24E2,3.32E2,4.6E1,3.1E1,1.03E2,2.3E1,5E0,5E1,3E0,1E0,5.6E1,1.3E1,1E0,3.6E1,5.2E1,4.9E1,1E0,4E0,1.8E1,4E0,4.4E1,6E0,8E0,8.8E1,8.9E1,5E0,1.04E2,1E0,2.37E2,1.5E1,5E0,1.9E1,2E0,4E0,7.1E1,2.2E1,5.58E2,4E1,4.94E2,1.9E1,1.97E2,2.7E1,3.07E2,2.5E1,3.4E1,1.2E1,1.7E1,1.4E1,6.7E1,3.6E1,1.2E1,1.1E1,3E0,2E0,3.1E1,1.9E1,1.9E1,3.7E1,3.8E1,1.4E1,1E0,4.8E1,1.5E1,3E0,3.8E1,6E0,6.6E1,2.2E1,8.4E1,5E0,4E0,1E0,2.21E2,1.6E1,1E0,4E0,7E1,1E0,3.76E2,1.82E2,2.7E1,1.3E1,4.5E2,4.4E1,1.8E1,1E0,1.34E2,6.3E1,8E0,1.9E1,1.89E2,1.18E2,7E0,1.8E1,4E0,3E1,5E0,1.2E1,1.2E1,2E0,3.3E1,3.4E1,2.3E1,1.3E1,1E1,2E0,9E0,2E0,1.8E1,1.3E1,1.5E1,4E0,1.7E1,2E0,2.2E1,1.5E1,3E0,3.5E1,4.6E1,2E0,1.2E1,3E0,2E0,1E0,5E0,1E0],"tree_param":{"num_deleted":"0","num_feature":"182","num_nodes":"197","size_leaf_vector":"1"}},{"base_weights":[5.850024E1,-5.069249E3,3.4296895E4,-1.5200012E4,-4.7135715E2,2.3773012E4,6.290489E4,-1.868433E4,-1.1287697E4,-1.4590424E3,4.9486223E4,1.5976764E4,3.284733E4,7.4135734E4,5.096452E4,-1.671766E4,-2.274563E4,-9.233661E3,-1.6604645E4,-2.7731917E3,9.293214E3,3.9739773E3,1.6877701E3,4.4827114E3,2.227271E4,3.9023547E4,6.748763E3,7.775885E4,2.587803E3,5.181186E4,1.0540278E2,-1.4731882E4,-1.9714072E4,-2.3224543E4,-6.9488007E2,-1.0068882E4,-1.7151827E3,-1.7423922E4,-1.0548787E4,-5.159159E2,-7.2746597E3,4.246216E3,1.231977E4,5.7919956E3,-1.1077814E4,1.7352264E4,3.0750572E4,3.7419236E3,3.5894863E4,-3.3540657E3,9.090859E3,1.5904613E3,4.7646553E3,5.365236E4,1.6519387E3,-1.2253491E4,-1.7107377E4,-1.1871917E3,-3.3058395E2,-1.6272136E3,-2.1755885E4,-9.519697E3,-1.0874143E3,-3.6555815E3,5.4598394E3,-1.7882547E4,-3.1901846E2,-6.5835596E2,-1.25748405E2,-3.6003381E3,3.07958E3,-1.0169154E4,-5.2970737E3,7.9197603E3,-1.2819968E3,1.0749256E4,1.8612006E4,1.4504378E4,4.653441E3,-7.783236E2,-1.0502496E2,1.3918799E4,1.8055153E3,3.9920438E2,1.8733215E3,4.1879242E4,2.8833523E4,2.3162778E2,-3.3414386E2,6.5233735E3,1.02174786E3,5.6080797E4,1.8225808E3,-3.7642563E2,-1.2720503E4,-1.752825E4,-7.9430566E3,-1.3106904E3,-3.7246735E2,-9.041332E3,-9.6242395E2,-3.2925455E2,-2.6824207E2,8.085032E1,4.1011633E2,-1.8790213E4,-8.5581934E2,-4.679736E3,1.1204137E4,2.2506272E3,2.3442184E4,-9.269842E3,-1.6165395E4,-5.9490938E3,2.6305876E3,6.736347E3,6.297996E2,7.732474E2,-3.6628235E3,1.240577E4,7.414332E3,2.3142475E4,1.2152998E4,1.067103E3,3.1772144E2,6.4153213E3,1.6017604E3,1.9797998E4,1.0458199E4,4.6597836E4,1.6091366E3,5.2176212E1,2.9386469E4,7.870874E3,-4.974707E2,3.5289312E3,3.2832953E4,-8.02571E2,-6.15445E2,-1.075892E3,-5.33624E2,-5.1538654E2,-1.4128395E2,-5.6467865E2,-2.2067989E2,-1.5214723E2,3.715256E1,-1.1345182E3,-3.1146188E2,-3.833031E2,-6.804957E1,7.740894E2,4.2054822E2,1.8465263E2,-3.6521567E2,1.445514E3,3.3292688E2,-4.786132E2,-7.1113983E2,-6.002861E2,-1.0877645E3,-2.7750986E2,-4.807763E2,-7.251302E1,2.4651689E2,6.094423E2,3.5803607E2,-3.6320316E1,8.1002235E1,-2.4578395E2,-3.3783283E1,5.9079504E2,8.722431E2,5.7045557E2,1.9777736E2,1.5078329E3,4.8832315E2,8.2009796E2,1.830597E2,4.7573563E2,2.3417432E2,-1.0320264E1,4.1744736E2,1.2512521E3,4.1168628E2,8.136453E2,3.2067834E2,1.068206E3,2.91017E3,1.803206E3,5.485128E2,5.548472E2,8.575641E1,-1.1352118E2,1.1058528E2,2.1096724E3,5.659034E2],"categories":[],"categories_nodes":[],"categories_segments":[],"categories_sizes":[],"default_left":[0,0,0,0,0,0,0,0,0,0,0,0,0,0,0,0,0,0,0,0,0,0,0,0,0,0,0,0,0,0,0,0,0,0,0,0,0,0,0,0,0,0,0,0,0,0,0,0,0,0,0,0,0,0,0,0,0,0,0,0,0,0,0,0,0,0,0,0,0,0,0,0,0,0,0,0,0,0,0,0,0,0,0,0,0,0,0,0,0,0,0,0,0,0,0,0,0,0,0,0,0,0,0,0,0,0,0,0,0,0,0,0,0,0,0,0,0,0,0,0,0,0,0,0,0,0,0,0,0,0,0,0,0,0,0,0,0,0,0,0,0,0,0,0,0,0,0,0,0,0,0,0,0,0,0,0,0,0,0,0,0,0,0,0,0,0,0,0,0,0,0,0,0,0,0,0,0,0,0,0,0,0,0,0,0,0,0,0,0,0,0,0,0,0,0,0,0],"id":7,"left_children":[1,3,5,7,9,11,13,15,17,19,21,23,25,27,29,31,33,35,37,39,41,-1,-1,43,45,47,49,51,-1,53,-1,55,57,59,-1,61,63,65,67,69,71,73,75,77,79,81,83,-1,85,87,89,-1,-1,91,-1,93,95,-1,-1,-1,97,99,-1,101,103,105,-1,-1,-1,107,109,111,113,115,117,119,121,123,125,-1,-1,127,-1,-1,-1,129,131,-1,-1,133,-1,135,-1,-1,137,139,141,-1,-1,143,-1,145,-1,-1,-1,147,-1,149,151,153,155,157,159,161,163,165,-1,167,169,171,173,175,177,-1,-1,179,181,183,185,187,-1,-1,189,191,193,-1,195,-1,-1,-1,-1,-1,-1,-1,-1,-1,-1,-1,-1,-1,-1,-1,-1,-1,-1,-1,-1,-1,-1,-1,-1,-1,-1,-1,-1,-1,-1,-1,-1,-1,-1,-1,-1,-1,-1,-1,-1,-1,-1,-1,-1,-1,-1,-1,-1,-1,-1,-1,-1,-1,-1,-1,-1,-1,-1,-1,-1],"loss_changes":[5.593513E11,1.2906642E11,1.2344744E11,1.1580572E10,9.416809E10,2.105262E10,1.1106845E10,3.2619233E9,4.3243684E9,2.6463134E10,1.1370144E10,1.1912905E10,2.2303293E10,2.824831E9,2.2856335E9,1.5600845E9,5.1164774E8,1.8540483E9,3.7683814E8,1.6944886E10,3.0637937E9,0E0,0E0,1.2865517E9,3.929899E9,6.0137144E9,6.9302144E8,1.9591332E9,0E0,1.02527795E9,0E0,9.148703E8,1.5511552E7,2.0525875E8,0E0,1.0129715E9,4.5155344E8,4.490711E8,3.43232E7,1.2343199E10,3.134464E9,1.5941876E9,1.0549535E9,4.879982E8,6.5635456E7,2.6430382E9,2.2397338E8,0E0,3.102761E9,1.1738018E8,3.57685E8,0E0,0E0,1.179222E9,0E0,1.9107738E8,2.2718669E8,0E0,0E0,0E0,1.099776E7,6.441513E8,0E0,6.631184E7,3.0383104E7,4.0749056E7,0E0,0E0,0E0,9.6244E9,8.623374E9,1.06346086E9,1.7369242E9,7.261901E7,1.5941402E8,4.825518E8,4.2104576E8,8.709235E7,2.6393574E8,0E0,0E0,9.526446E8,0E0,0E0,0E0,2.516656E9,7.4756915E8,0E0,0E0,1.8366669E8,0E0,9.2984115E8,0E0,0E0,6.529024E6,1.539154E8,1.457824E6,0E0,0E0,4.376535E8,0E0,1.4127083E7,0E0,0E0,0E0,1.7799168E7,0E0,3.3792573E9,2.0150835E8,3.4314908E9,9.883341E7,5.6658534E8,1.5740723E8,8.045128E8,1.5249856E8,3.1474688E7,0E0,1.5130006E7,1.7853264E7,2.278103E8,2.8760538E8,1.8324122E8,1.2380531E8,0E0,0E0,9.074394E7,1.9119158E8,1.3018317E8,5.3039693E8,1.2757565E9,0E0,0E0,3.868713E8,1.2866086E8,1.6543252E7,0E0,4.975667E7,0E0,0E0,0E0,0E0,0E0,0E0,0E0,0E0,0E0,0E0,0E0,0E0,0E0,0E0,0E0,0E0,0E0,0E0,0E0,0E0,0E0,0E0,0E0,0E0,0E0,0E0,0E0,0E0,0E0,0E0,0E0,0E0,0E0,0E0,0E0,0E0,0E0,0E0,0E0,0E0,0E0,0E0,0E0,0E0,0E0,0E0,0E0,0E0,0E0,0E0,0E0,0E0,0E0,0E0,0E0,0E0,0E0,0E0,0E0,0E0],"parents":[2147483647,0,0,1,1,2,2,3,3,4,4,5,5,6,6,7,7,8,8,9,9,10,10,11,11,12,12,13,13,14,14,15,15,16,16,17,17,18,18,19,19,20,20,23,23,24,24,25,25,26,26,27,27,29,29,31,31,32,32,33,33,35,35,36,36,37,37,38,38,39,39,40,40,41,41,42,42,43,43,44,44,45,45,46,46,48,48,49,49,50,50,53,53,55,55,56,56,60,60,61,61,63,63,64,64,65,65,69,69,70,70,71,71,72,72,73,73,74,74,75,75,76,76,77,77,78,78,81,81,85,85,86,86,89,89,91,91,94,94,95,95,96,96,99,99,101,101,105,105,107,107,108,108,109,109,110,110,111,111,112,112,113,113,114,114,115,115,117,117,118,118,119,119,120,120,121,121,122,122,125,125,126,126,127,127,128,128,129,129,132,132,133,133,134,134,136,136],"right_children":[2,4,6,8,10,12,14,16,18,20,22,24,26,28,30,32,34,36,38,40,42,-1,-1,44,46,48,50,52,-1,54,-1,56,58,60,-1,62,64,66,68,70,72,74,76,78,80,82,84,-1,86,88,90,-1,-1,92,-1,94,96,-1,-1,-1,98,100,-1,102,104,106,-1,-1,-1,108,110,112,114,116,118,120,122,124,126,-1,-1,128,-1,-1,-1,130,132,-1,-1,134,-1,136,-1,-1,138,140,142,-1,-1,144,-1,146,-1,-1,-1,148,-1,150,152,154,156,158,160,162,164,166,-1,168,170,172,174,176,178,-1,-1,180,182,184,186,188,-1,-1,190,192,194,-1,196,-1,-1,-1,-1,-1,-1,-1,-1,-1,-1,-1,-1,-1,-1,-1,-1,-1,-1,-1,-1,-1,-1,-1,-1,-1,-1,-1,-1,-1,-1,-1,-1,-1,-1,-1,-1,-1,-1,-1,-1,-1,-1,-1,-1,-1,-1,-1,-1,-1,-1,-1,-1,-1,-1,-1,-1,-1,-1,-1,-1],"split_conditions":[8.9E1,6.65E1,3.73E2,5.4E1,1E0,2.65E2,3.3333334E-1,1.4166666E0,1.9E4,1E0,8.3333336E-2,1E0,1E0,1.11E2,2E0,1.01E2,1E0,1E0,1E0,1.0833334E0,2.31E2,3.9739773E3,1.6877701E3,4.9E4,1E0,2.82E2,1E0,1E0,2.587803E3,2.4166667E0,1.0540278E2,3.3333334E-1,6E0,8.2E1,-6.9488007E2,1E0,1E0,1E0,2E0,1.73E2,1.68E2,4.1666666E-1,1E0,6E3,1.36E2,2.16E2,1E1,3.7419236E3,8.3333336E-2,1E0,3.15E2,1.5904613E3,4.7646553E3,1.11E2,1.6519387E3,6E1,6E0,-1.1871917E3,-3.3058395E2,-1.6272136E3,3E0,1E0,-1.0874143E3,8.3333336E-2,1.65E2,1.65E2,-3.1901846E2,-6.5835596E2,-1.25748405E2,1E0,1E0,1E0,1E0,2.02E2,1.8333334E0,8.333333E-1,1E0,1E0,6.666667E-1,-7.783236E2,-1.0502496E2,8.333333E-1,1.8055153E3,3.9920438E2,1.8733215E3,9.5E1,2.99E2,2.3162778E2,-3.3414386E2,2.75E0,1.02174786E3,1E0,1.8225808E3,-3.7642563E2,1E0,1E0,1.5E3,-1.3106904E3,-3.7246735E2,1E0,-9.6242395E2,1E0,-2.6824207E2,8.085032E1,4.1011633E2,1E0,-8.5581934E2,7.74E1,2.5E-1,1E0,1E0,1E0,1.1666666E0,3.3E4,1E0,2.5E3,6.297996E2,7.9E3,1E0,1E0,1E0,1E0,1.0833334E0,1.067103E3,3.1772144E2,1E0,1E0,1E0,1E0,1E0,1.6091366E3,5.2176212E1,3.58E2,1E0,1E0,3.5289312E3,1E0,-8.02571E2,-6.15445E2,-1.075892E3,-5.33624E2,-5.1538654E2,-1.4128395E2,-5.6467865E2,-2.2067989E2,-1.5214723E2,3.715256E1,-1.1345182E3,-3.1146188E2,-3.833031E2,-6.804957E1,7.740894E2,4.2054822E2,1.8465263E2,-3.6521567E2,1.445514E3,3.3292688E2,-4.786132E2,-7.1113983E2,-6.002861E2,-1.0877645E3,-2.7750986E2,-4.807763E2,-7.251302E1,2.4651689E2,6.094423E2,3.5803607E2,-3.6320316E1,8.1002235E1,-2.4578395E2,-3.3783283E1,5.9079504E2,8.722431E2,5.7045557E2,1.9777736E2,1.5078329E3,4.8832315E2,8.2009796E2,1.830597E2,4.7573563E2,2.3417432E2,-1.0320264E1,4.1744736E2,1.2512521E3,4.1168628E2,8.136453E2,3.2067834E2,1.068206E3,2.91017E3,1.803206E3,5.485128E2,5.548472E2,8.575641E1,-1.1352118E2,1.1058528E2,2.1096724E3,5.659034E2],"split_indices":[4,4,3,4,62,3,5,5,1,40,5,54,95,4,0,3,119,179,65,5,3,0,0,1,179,3,15,179,0,5,0,5,2,3,0,130,28,68,0,3,3,5,28,1,3,3,1,0,5,6,3,0,0,4,0,3,2,0,0,0,5,55,0,5,3,3,0,0,0,117,151,147,102,3,5,5,14,9,5,0,0,5,0,0,0,4,3,0,0,5,0,177,0,0,42,90,1,0,0,68,0,10,0,0,0,39,0,4,5,67,22,69,5,1,10,1,0,1,169,179,114,22,5,0,0,181,27,24,12,179,0,0,3,31,24,0,24,0,0,0,0,0,0,0,0,0,0,0,0,0,0,0,0,0,0,0,0,0,0,0,0,0,0,0,0,0,0,0,0,0,0,0,0,0,0,0,0,0,0,0,0,0,0,0,0,0,0,0,0,0,0,0,0,0,0,0,0],"split_type":[0,0,0,0,0,0,0,0,0,0,0,0,0,0,0,0,0,0,0,0,0,0,0,0,0,0,0,0,0,0,0,0,0,0,0,0,0,0,0,0,0,0,0,0,0,0,0,0,0,0,0,0,0,0,0,0,0,0,0,0,0,0,0,0,0,0,0,0,0,0,0,0,0,0,0,0,0,0,0,0,0,0,0,0,0,0,0,0,0,0,0,0,0,0,0,0,0,0,0,0,0,0,0,0,0,0,0,0,0,0,0,0,0,0,0,0,0,0,0,0,0,0,0,0,0,0,0,0,0,0,0,0,0,0,0,0,0,0,0,0,0,0,0,0,0,0,0,0,0,0,0,0,0,0,0,0,0,0,0,0,0,0,0,0,0,0,0,0,0,0,0,0,0,0,0,0,0,0,0,0,0,0,0,0,0,0,0,0,0,0,0,0,0,0,0,0,0],"sum_hessian":[3.184E3,2.77E3,4.14E2,8.64E2,1.906E3,3.04E2,1.1E2,4.55E2,4.09E2,1.87E3,3.6E1,1.65E2,1.39E2,5.4E1,5.6E1,3.1E2,1.45E2,2.97E2,1.12E2,1.667E3,2.03E2,1.9E1,1.7E1,5.9E1,1.06E2,1.12E2,2.7E1,4.7E1,7E0,5.5E1,1E0,1.9E2,1.2E2,1.38E2,7E0,2.67E2,3E1,9.7E1,1.5E1,1.111E3,5.56E2,7.7E1,1.26E2,5.5E1,4E0,6.9E1,3.7E1,1.1E1,1.01E2,5E0,2.2E1,2E0,4.5E1,5E1,5E0,9.6E1,9.4E1,1.19E2,1E0,3.3E1,1.05E2,2.52E2,1.5E1,2.4E1,6E0,9.3E1,4E0,1.4E1,1E0,5.98E2,5.13E2,2.24E2,3.32E2,4.6E1,3.1E1,1.03E2,2.3E1,5E0,5E1,3E0,1E0,5.6E1,1.3E1,1E0,3.6E1,5.2E1,4.9E1,1E0,4E0,1.8E1,4E0,4.4E1,6E0,8E0,8.8E1,8.9E1,5E0,1.04E2,1E0,2.37E2,1.5E1,5E0,1.9E1,2E0,4E0,7.1E1,2.2E1,5.58E2,4E1,4.94E2,1.9E1,1.97E2,2.7E1,3.07E2,2.5E1,3.4E1,1.2E1,1.7E1,1.4E1,6.7E1,3.6E1,1.2E1,1.1E1,3E0,2E0,3.1E1,1.9E1,1.9E1,3.7E1,3.8E1,1.4E1,1E0,4.8E1,1.5E1,3E0,3.8E1,6E0,6.6E1,2.2E1,8.4E1,5E0,4E0,1E0,2.21E2,1.6E1,1E0,4E0,7E1,1E0,3.76E2,1.82E2,2.7E1,1.3E1,4.5E2,4.4E1,1.8E1,1E0,1.34E2,6.3E1,8E0,1.9E1,1.89E2,1.18E2,7E0,1.8E1,4E0,3E1,5E0,1.2E1,1.2E1,2E0,3.3E1,3.4E1,2.3E1,1.3E1,1E1,2E0,9E0,2E0,1.8E1,1.3E1,1.5E1,4E0,1.7E1,2E0,2.2E1,1.5E1,3E0,3.5E1,4.6E1,2E0,1.2E1,3E0,2E0,1E0,5E0,1E0],"tree_param":{"num_deleted":"0","num_feature":"182","num_nodes":"197","size_leaf_vector":"1"}},{"base_weights":[5.850024E1,-5.069249E3,3.4296895E4,-1.5200012E4,-4.7135715E2,2.3773012E4,6.290489E4,-1.868433E4,-1.1287697E4,-1.4590424E3,4.9486223E4,1.5976764E4,3.284733E4,7.4135734E4,5.096452E4,-1.671766E4,-2.274563E4,-9.233661E3,-1.6604645E4,-2.7731917E3,9.293214E3,3.9739773E3,1.6877701E3,4.4827114E3,2.227271E4,3.9023547E4,6.748763E3,7.775885E4,2.587803E3,5.181186E4,1.0540278E2,-1.4731882E4,-1.9714072E4,-2.3224543E4,-6.9488007E2,-1.0068882E4,-1.7151827E3,-1.7423922E4,-1.0548787E4,-5.159159E2,-7.2746597E3,4.246216E3,1.231977E4,5.7919956E3,-1.1077814E4,1.7352264E4,3.0750572E4,3.7419236E3,3.5894863E4,-3.3540657E3,9.090859E3,1.5904613E3,4.7646553E3,5.365236E4,1.6519387E3,-1.2253491E4,-1.7107377E4,-1.1871917E3,-3.3058395E2,-1.6272136E3,-2.1755885E4,-9.519697E3,-1.0874143E3,-3.6555815E3,5.4598394E3,-1.7882547E4,-3.1901846E2,-6.5835596E2,-1.25748405E2,-3.6003381E3,3.07958E3,-1.0169154E4,-5.2970737E3,7.9197603E3,-1.2819968E3,1.0749256E4,1.8612006E4,1.4504378E4,4.653441E3,-7.783236E2,-1.0502496E2,1.3918799E4,1.8055153E3,3.9920438E2,1.8733215E3,4.1879242E4,2.8833523E4,2.3162778E2,-3.3414386E2,6.5233735E3,1.02174786E3,5.6080797E4,1.8225808E3,-3.7642563E2,-1.2720503E4,-1.752825E4,-7.9430566E3,-1.3106904E3,-3.7246735E2,-9.041332E3,-9.6242395E2,-3.2925455E2,-2.6824207E2,8.085032E1,4.1011633E2,-1.8790213E4,-8.5581934E2,-4.679736E3,1.1204137E4,2.2506272E3,2.3442184E4,-9.269842E3,-1.6165395E4,-5.9490938E3,2.6305876E3,6.736347E3,6.297996E2,7.732474E2,-3.6628235E3,1.240577E4,7.414332E3,2.3142475E4,1.2152998E4,1.067103E3,3.1772144E2,6.4153213E3,1.6017604E3,1.9797998E4,1.0458199E4,4.6597836E4,1.6091366E3,5.2176212E1,2.9386469E4,7.870874E3,-4.974707E2,3.5289312E3,3.2832953E4,-8.02571E2,-6.15445E2,-1.075892E3,-5.33624E2,-5.1538654E2,-1.4128395E2,-5.6467865E2,-2.2067989E2,-1.5214723E2,3.715256E1,-1.1345182E3,-3.1146188E2,-3.833031E2,-6.804957E1,7.740894E2,4.2054822E2,1.8465263E2,-3.6521567E2,1.445514E3,3.3292688E2,-4.786132E2,-7.1113983E2,-6.002861E2,-1.0877645E3,-2.7750986E2,-4.807763E2,-7.251302E1,2.4651689E2,6.094423E2,3.5803607E2,-3.6320316E1,8.1002235E1,-2.4578395E2,-3.3783283E1,5.9079504E2,8.722431E2,5.7045557E2,1.9777736E2,1.5078329E3,4.8832315E2,8.2009796E2,1.830597E2,4.7573563E2,2.3417432E2,-1.0320264E1,4.1744736E2,1.2512521E3,4.1168628E2,8.136453E2,3.2067834E2,1.068206E3,2.91017E3,1.803206E3,5.485128E2,5.548472E2,8.575641E1,-1.1352118E2,1.1058528E2,2.1096724E3,5.659034E2],"categories":[],"categories_nodes":[],"categories_segments":[],"categories_sizes":[],"default_left":[0,0,0,0,0,0,0,0,0,0,0,0,0,0,0,0,0,0,0,0,0,0,0,0,0,0,0,0,0,0,0,0,0,0,0,0,0,0,0,0,0,0,0,0,0,0,0,0,0,0,0,0,0,0,0,0,0,0,0,0,0,0,0,0,0,0,0,0,0,0,0,0,0,0,0,0,0,0,0,0,0,0,0,0,0,0,0,0,0,0,0,0,0,0,0,0,0,0,0,0,0,0,0,0,0,0,0,0,0,0,0,0,0,0,0,0,0,0,0,0,0,0,0,0,0,0,0,0,0,0,0,0,0,0,0,0,0,0,0,0,0,0,0,0,0,0,0,0,0,0,0,0,0,0,0,0,0,0,0,0,0,0,0,0,0,0,0,0,0,0,0,0,0,0,0,0,0,0,0,0,0,0,0,0,0,0,0,0,0,0,0,0,0,0,0,0,0],"id":8,"left_children":[1,3,5,7,9,11,13,15,17,19,21,23,25,27,29,31,33,35,37,39,41,-1,-1,43,45,47,49,51,-1,53,-1,55,57,59,-1,61,63,65,67,69,71,73,75,77,79,81,83,-1,85,87,89,-1,-1,91,-1,93,95,-1,-1,-1,97,99,-1,101,103,105,-1,-1,-1,107,109,111,113,115,117,119,121,123,125,-1,-1,127,-1,-1,-1,129,131,-1,-1,133,-1,135,-1,-1,137,139,141,-1,-1,143,-1,145,-1,-1,-1,147,-1,149,151,153,155,157,159,161,163,165,-1,167,169,171,173,175,177,-1,-1,179,181,183,185,187,-1,-1,189,191,193,-1,195,-1,-1,-1,-1,-1,-1,-1,-1,-1,-1,-1,-1,-1,-1,-1,-1,-1,-1,-1,-1,-1,-1,-1,-1,-1,-1,-1,-1,-1,-1,-1,-1,-1,-1,-1,-1,-1,-1,-1,-1,-1,-1,-1,-1,-1,-1,-1,-1,-1,-1,-1,-1,-1,-1,-1,-1,-1,-1,-1,-1],"loss_changes":[5.593513E11,1.2906642E11,1.2344744E11,1.1580572E10,9.416809E10,2.105262E10,1.1106845E10,3.2619233E9,4.3243684E9,2.6463134E10,1.1370144E10,1.1912905E10,2.2303293E10,2.824831E9,2.2856335E9,1.5600845E9,5.1164774E8,1.8540483E9,3.7683814E8,1.6944886E10,3.0637937E9,0E0,0E0,1.2865517E9,3.929899E9,6.0137144E9,6.9302144E8,1.9591332E9,0E0,1.02527795E9,0E0,9.148703E8,1.5511552E7,2.0525875E8,0E0,1.0129715E9,4.5155344E8,4.490711E8,3.43232E7,1.2343199E10,3.134464E9,1.5941876E9,1.0549535E9,4.879982E8,6.5635456E7,2.6430382E9,2.2397338E8,0E0,3.102761E9,1.1738018E8,3.57685E8,0E0,0E0,1.179222E9,0E0,1.9107738E8,2.2718669E8,0E0,0E0,0E0,1.099776E7,6.441513E8,0E0,6.631184E7,3.0383104E7,4.0749056E7,0E0,0E0,0E0,9.6244E9,8.623374E9,1.06346086E9,1.7369242E9,7.261901E7,1.5941402E8,4.825518E8,4.2104576E8,8.709235E7,2.6393574E8,0E0,0E0,9.526446E8,0E0,0E0,0E0,2.516656E9,7.4756915E8,0E0,0E0,1.8366669E8,0E0,9.2984115E8,0E0,0E0,6.529024E6,1.539154E8,1.457824E6,0E0,0E0,4.376535E8,0E0,1.4127083E7,0E0,0E0,0E0,1.7799168E7,0E0,3.3792573E9,2.0150835E8,3.4314908E9,9.883341E7,5.6658534E8,1.5740723E8,8.045128E8,1.5249856E8,3.1474688E7,0E0,1.5130006E7,1.7853264E7,2.278103E8,2.8760538E8,1.8324122E8,1.2380531E8,0E0,0E0,9.074394E7,1.9119158E8,1.3018317E8,5.3039693E8,1.2757565E9,0E0,0E0,3.868713E8,1.2866086E8,1.6543252E7,0E0,4.975667E7,0E0,0E0,0E0,0E0,0E0,0E0,0E0,0E0,0E0,0E0,0E0,0E0,0E0,0E0,0E0,0E0,0E0,0E0,0E0,0E0,0E0,0E0,0E0,0E0,0E0,0E0,0E0,0E0,0E0,0E0,0E0,0E0,0E0,0E0,0E0,0E0,0E0,0E0,0E0,0E0,0E0,0E0,0E0,0E0,0E0,0E0,0E0,0E0,0E0,0E0,0E0,0E0,0E0,0E0,0E0,0E0,0E0,0E0,0E0,0E0],"parents":[2147483647,0,0,1,1,2,2,3,3,4,4,5,5,6,6,7,7,8,8,9,9,10,10,11,11,12,12,13,13,14,14,15,15,16,16,17,17,18,18,19,19,20,20,23,23,24,24,25,25,26,26,27,27,29,29,31,31,32,32,33,33,35,35,36,36,37,37,38,38,39,39,40,40,41,41,42,42,43,43,44,44,45,45,46,46,48,48,49,49,50,50,53,53,55,55,56,56,60,60,61,61,63,63,64,64,65,65,69,69,70,70,71,71,72,72,73,73,74,74,75,75,76,76,77,77,78,78,81,81,85,85,86,86,89,89,91,91,94,94,95,95,96,96,99,99,101,101,105,105,107,107,108,108,109,109,110,110,111,111,112,112,113,113,114,114,115,115,117,117,118,118,119,119,120,120,121,121,122,122,125,125,126,126,127,127,128,128,129,129,132,132,133,133,134,134,136,136],"right_children":[2,4,6,8,10,12,14,16,18,20,22,24,26,28,30,32,34,36,38,40,42,-1,-1,44,46,48,50,52,-1,54,-1,56,58,60,-1,62,64,66,68,70,72,74,76,78,80,82,84,-1,86,88,90,-1,-1,92,-1,94,96,-1,-1,-1,98,100,-1,102,104,106,-1,-1,-1,108,110,112,114,116,118,120,122,124,126,-1,-1,128,-1,-1,-1,130,132,-1,-1,134,-1,136,-1,-1,138,140,142,-1,-1,144,-1,146,-1,-1,-1,148,-1,150,152,154,156,158,160,162,164,166,-1,168,170,172,174,176,178,-1,-1,180,182,184,186,188,-1,-1,190,192,194,-1,196,-1,-1,-1,-1,-1,-1,-1,-1,-1,-1,-1,-1,-1,-1,-1,-1,-1,-1,-1,-1,-1,-1,-1,-1,-1,-1,-1,-1,-1,-1,-1,-1,-1,-1,-1,-1,-1,-1,-1,-1,-1,-1,-1,-1,-1,-1,-1,-1,-1,-1,-1,-1,-1,-1,-1,-1,-1,-1,-1,-1],"split_conditions":[8.9E1,6.65E1,3.73E2,5.4E1,1E0,2.65E2,3.3333334E-1,1.4166666E0,1.9E4,1E0,8.3333336E-2,1E0,1E0,1.11E2,2E0,1.01E2,1E0,1E0,1E0,1.0833334E0,2.31E2,3.9739773E3,1.6877701E3,4.9E4,1E0,2.82E2,1E0,1E0,2.587803E3,2.4166667E0,1.0540278E2,3.3333334E-1,6E0,8.2E1,-6.9488007E2,1E0,1E0,1E0,2E0,1.73E2,1.68E2,4.1666666E-1,1E0,6E3,1.36E2,2.16E2,1E1,3.7419236E3,8.3333336E-2,1E0,3.15E2,1.5904613E3,4.7646553E3,1.11E2,1.6519387E3,6E1,6E0,-1.1871917E3,-3.3058395E2,-1.6272136E3,3E0,1E0,-1.0874143E3,8.3333336E-2,1.65E2,1.65E2,-3.1901846E2,-6.5835596E2,-1.25748405E2,1E0,1E0,1E0,1E0,2.02E2,1.8333334E0,8.333333E-1,1E0,1E0,6.666667E-1,-7.783236E2,-1.0502496E2,8.333333E-1,1.8055153E3,3.9920438E2,1.8733215E3,9.5E1,2.99E2,2.3162778E2,-3.3414386E2,2.75E0,1.02174786E3,1E0,1.8225808E3,-3.7642563E2,1E0,1E0,1.5E3,-1.3106904E3,-3.7246735E2,1E0,-9.6242395E2,1E0,-2.6824207E2,8.085032E1,4.1011633E2,1E0,-8.5581934E2,7.74E1,2.5E-1,1E0,1E0,1E0,1.1666666E0,3.3E4,1E0,2.5E3,6.297996E2,7.9E3,1E0,1E0,1E0,1E0,1.0833334E0,1.067103E3,3.1772144E2,1E0,1E0,1E0,1E0,1E0,1.6091366E3,5.2176212E1,3.58E2,1E0,1E0,3.5289312E3,1E0,-8.02571E2,-6.15445E2,-1.075892E3,-5.33624E2,-5.1538654E2,-1.4128395E2,-5.6467865E2,-2.2067989E2,-1.5214723E2,3.715256E1,-1.1345182E3,-3.1146188E2,-3.833031E2,-6.804957E1,7.740894E2,4.2054822E2,1.8465263E2,-3.6521567E2,1.445514E3,3.3292688E2,-4.786132E2,-7.1113983E2,-6.002861E2,-1.0877645E3,-2.7750986E2,-4.807763E2,-7.251302E1,2.4651689E2,6.094423E2,3.5803607E2,-3.6320316E1,8.1002235E1,-2.4578395E2,-3.3783283E1,5.9079504E2,8.722431E2,5.7045557E2,1.9777736E2,1.5078329E3,4.8832315E2,8.2009796E2,1.830597E2,4.7573563E2,2.3417432E2,-1.0320264E1,4.1744736E2,1.2512521E3,4.1168628E2,8.136453E2,3.2067834E2,1.068206E3,2.91017E3,1.803206E3,5.485128E2,5.548472E2,8.575641E1,-1.1352118E2,1.1058528E2,2.1096724E3,5.659034E2],"split_indices":[4,4,3,4,62,3,5,5,1,40,5,54,95,4,0,3,119,179,65,5,3,0,0,1,179,3,15,179,0,5,0,5,2,3,0,130,28,68,0,3,3,5,28,1,3,3,1,0,5,6,3,0,0,4,0,3,2,0,0,0,5,55,0,5,3,3,0,0,0,117,151,147,102,3,5,5,14,9,5,0,0,5,0,0,0,4,3,0,0,5,0,177,0,0,42,90,1,0,0,68,0,10,0,0,0,39,0,4,5,67,22,69,5,1,10,1,0,1,169,179,114,22,5,0,0,181,27,24,12,179,0,0,3,31,24,0,24,0,0,0,0,0,0,0,0,0,0,0,0,0,0,0,0,0,0,0,0,0,0,0,0,0,0,0,0,0,0,0,0,0,0,0,0,0,0,0,0,0,0,0,0,0,0,0,0,0,0,0,0,0,0,0,0,0,0,0,0],"split_type":[0,0,0,0,0,0,0,0,0,0,0,0,0,0,0,0,0,0,0,0,0,0,0,0,0,0,0,0,0,0,0,0,0,0,0,0,0,0,0,0,0,0,0,0,0,0,0,0,0,0,0,0,0,0,0,0,0,0,0,0,0,0,0,0,0,0,0,0,0,0,0,0,0,0,0,0,0,0,0,0,0,0,0,0,0,0,0,0,0,0,0,0,0,0,0,0,0,0,0,0,0,0,0,0,0,0,0,0,0,0,0,0,0,0,0,0,0,0,0,0,0,0,0,0,0,0,0,0,0,0,0,0,0,0,0,0,0,0,0,0,0,0,0,0,0,0,0,0,0,0,0,0,0,0,0,0,0,0,0,0,0,0,0,0,0,0,0,0,0,0,0,0,0,0,0,0,0,0,0,0,0,0,0,0,0,0,0,0,0,0,0,0,0,0,0,0,0],"sum_hessian":[3.184E3,2.77E3,4.14E2,8.64E2,1.906E3,3.04E2,1.1E2,4.55E2,4.09E2,1.87E3,3.6E1,1.65E2,1.39E2,5.4E1,5.6E1,3.1E2,1.45E2,2.97E2,1.12E2,1.667E3,2.03E2,1.9E1,1.7E1,5.9E1,1.06E2,1.12E2,2.7E1,4.7E1,7E0,5.5E1,1E0,1.9E2,1.2E2,1.38E2,7E0,2.67E2,3E1,9.7E1,1.5E1,1.111E3,5.56E2,7.7E1,1.26E2,5.5E1,4E0,6.9E1,3.7E1,1.1E1,1.01E2,5E0,2.2E1,2E0,4.5E1,5E1,5E0,9.6E1,9.4E1,1.19E2,1E0,3.3E1,1.05E2,2.52E2,1.5E1,2.4E1,6E0,9.3E1,4E0,1.4E1,1E0,5.98E2,5.13E2,2.24E2,3.32E2,4.6E1,3.1E1,1.03E2,2.3E1,5E0,5E1,3E0,1E0,5.6E1,1.3E1,1E0,3.6E1,5.2E1,4.9E1,1E0,4E0,1.8E1,4E0,4.4E1,6E0,8E0,8.8E1,8.9E1,5E0,1.04E2,1E0,2.37E2,1.5E1,5E0,1.9E1,2E0,4E0,7.1E1,2.2E1,5.58E2,4E1,4.94E2,1.9E1,1.97E2,2.7E1,3.07E2,2.5E1,3.4E1,1.2E1,1.7E1,1.4E1,6.7E1,3.6E1,1.2E1,1.1E1,3E0,2E0,3.1E1,1.9E1,1.9E1,3.7E1,3.8E1,1.4E1,1E0,4.8E1,1.5E1,3E0,3.8E1,6E0,6.6E1,2.2E1,8.4E1,5E0,4E0,1E0,2.21E2,1.6E1,1E0,4E0,7E1,1E0,3.76E2,1.82E2,2.7E1,1.3E1,4.5E2,4.4E1,1.8E1,1E0,1.34E2,6.3E1,8E0,1.9E1,1.89E2,1.18E2,7E0,1.8E1,4E0,3E1,5E0,1.2E1,1.2E1,2E0,3.3E1,3.4E1,2.3E1,1.3E1,1E1,2E0,9E0,2E0,1.8E1,1.3E1,1.5E1,4E0,1.7E1,2E0,2.2E1,1.5E1,3E0,3.5E1,4.6E1,2E0,1.2E1,3E0,2E0,1E0,5E0,1E0],"tree_param":{"num_deleted":"0","num_feature":"182","num_nodes":"197","size_leaf_vector":"1"}},{"base_weights":[5.850024E1,-5.069249E3,3.4296895E4,-1.5200012E4,-4.7135715E2,2.3773012E4,6.290489E4,-1.868433E4,-1.1287697E4,-1.4590424E3,4.9486223E4,1.5976764E4,3.284733E4,7.4135734E4,5.096452E4,-1.671766E4,-2.274563E4,-9.233661E3,-1.6604645E4,-2.7731917E3,9.293214E3,3.9739773E3,1.6877701E3,4.4827114E3,2.227271E4,3.9023547E4,6.748763E3,7.775885E4,2.587803E3,5.181186E4,1.0540278E2,-1.4731882E4,-1.9714072E4,-2.3224543E4,-6.9488007E2,-1.0068882E4,-1.7151827E3,-1.7423922E4,-1.0548787E4,-5.159159E2,-7.2746597E3,4.246216E3,1.231977E4,5.7919956E3,-1.1077814E4,1.7352264E4,3.0750572E4,3.7419236E3,3.5894863E4,-3.3540657E3,9.090859E3,1.5904613E3,4.7646553E3,5.365236E4,1.6519387E3,-1.2253491E4,-1.7107377E4,-1.1871917E3,-3.3058395E2,-1.6272136E3,-2.1755885E4,-9.519697E3,-1.0874143E3,-3.6555815E3,5.4598394E3,-1.7882547E4,-3.1901846E2,-6.5835596E2,-1.25748405E2,-3.6003381E3,3.07958E3,-1.0169154E4,-5.2970737E3,7.9197603E3,-1.2819968E3,1.0749256E4,1.8612006E4,1.4504378E4,4.653441E3,-7.783236E2,-1.0502496E2,1.3918799E4,1.8055153E3,3.9920438E2,1.8733215E3,4.1879242E4,2.8833523E4,2.3162778E2,-3.3414386E2,6.5233735E3,1.02174786E3,5.6080797E4,1.8225808E3,-3.7642563E2,-1.2720503E4,-1.752825E4,-7.9430566E3,-1.3106904E3,-3.7246735E2,-9.041332E3,-9.6242395E2,-3.2925455E2,-2.6824207E2,8.085032E1,4.1011633E2,-1.8790213E4,-8.5581934E2,-4.679736E3,1.1204137E4,2.2506272E3,2.3442184E4,-9.269842E3,-1.6165395E4,-5.9490938E3,2.6305876E3,6.736347E3,6.297996E2,7.732474E2,-3.6628235E3,1.240577E4,7.414332E3,2.3142475E4,1.2152998E4,1.067103E3,3.1772144E2,6.4153213E3,1.6017604E3,1.9797998E4,1.0458199E4,4.6597836E4,1.6091366E3,5.2176212E1,2.9386469E4,7.870874E3,-4.974707E2,3.5289312E3,3.2832953E4,-8.02571E2,-6.15445E2,-1.075892E3,-5.33624E2,-5.1538654E2,-1.4128395E2,-5.6467865E2,-2.2067989E2,-1.5214723E2,3.715256E1,-1.1345182E3,-3.1146188E2,-3.833031E2,-6.804957E1,7.740894E2,4.2054822E2,1.8465263E2,-3.6521567E2,1.445514E3,3.3292688E2,-4.786132E2,-7.1113983E2,-6.002861E2,-1.0877645E3,-2.7750986E2,-4.807763E2,-7.251302E1,2.4651689E2,6.094423E2,3.5803607E2,-3.6320316E1,8.1002235E1,-2.4578395E2,-3.3783283E1,5.9079504E2,8.722431E2,5.7045557E2,1.9777736E2,1.5078329E3,4.8832315E2,8.2009796E2,1.830597E2,4.7573563E2,2.3417432E2,-1.0320264E1,4.1744736E2,1.2512521E3,4.1168628E2,8.136453E2,3.2067834E2,1.068206E3,2.91017E3,1.803206E3,5.485128E2,5.548472E2,8.575641E1,-1.1352118E2,1.1058528E2,2.1096724E3,5.659034E2],"categories":[],"categories_nodes":[],"categories_segments":[],"categories_sizes":[],"default_left":[0,0,0,0,0,0,0,0,0,0,0,0,0,0,0,0,0,0,0,0,0,0,0,0,0,0,0,0,0,0,0,0,0,0,0,0,0,0,0,0,0,0,0,0,0,0,0,0,0,0,0,0,0,0,0,0,0,0,0,0,0,0,0,0,0,0,0,0,0,0,0,0,0,0,0,0,0,0,0,0,0,0,0,0,0,0,0,0,0,0,0,0,0,0,0,0,0,0,0,0,0,0,0,0,0,0,0,0,0,0,0,0,0,0,0,0,0,0,0,0,0,0,0,0,0,0,0,0,0,0,0,0,0,0,0,0,0,0,0,0,0,0,0,0,0,0,0,0,0,0,0,0,0,0,0,0,0,0,0,0,0,0,0,0,0,0,0,0,0,0,0,0,0,0,0,0,0,0,0,0,0,0,0,0,0,0,0,0,0,0,0,0,0,0,0,0,0],"id":9,"left_children":[1,3,5,7,9,11,13,15,17,19,21,23,25,27,29,31,33,35,37,39,41,-1,-1,43,45,47,49,51,-1,53,-1,55,57,59,-1,61,63,65,67,69,71,73,75,77,79,81,83,-1,85,87,89,-1,-1,91,-1,93,95,-1,-1,-1,97,99,-1,101,103,105,-1,-1,-1,107,109,111,113,115,117,119,121,123,125,-1,-1,127,-1,-1,-1,129,131,-1,-1,133,-1,135,-1,-1,137,139,141,-1,-1,143,-1,145,-1,-1,-1,147,-1,149,151,153,155,157,159,161,163,165,-1,167,169,171,173,175,177,-1,-1,179,181,183,185,187,-1,-1,189,191,193,-1,195,-1,-1,-1,-1,-1,-1,-1,-1,-1,-1,-1,-1,-1,-1,-1,-1,-1,-1,-1,-1,-1,-1,-1,-1,-1,-1,-1,-1,-1,-1,-1,-1,-1,-1,-1,-1,-1,-1,-1,-1,-1,-1,-1,-1,-1,-1,-1,-1,-1,-1,-1,-1,-1,-1,-1,-1,-1,-1,-1,-1],"loss_changes":[5.593513E11,1.2906642E11,1.2344744E11,1.1580572E10,9.416809E10,2.105262E10,1.1106845E10,3.2619233E9,4.3243684E9,2.6463134E10,1.1370144E10,1.1912905E10,2.2303293E10,2.824831E9,2.2856335E9,1.5600845E9,5.1164774E8,1.8540483E9,